0.0000 -5.8361 0.9882
0.0286 -5.8325 0.9881
0.0571 -5.8218 0.9878
0.0857 -5.8039 0.9874
0.1143 -5.7789 0.9866
0.1429 -5.7466 0.9856
0.1714 -5.7070 0.9840
0.2000 -5.6609 0.9817
0.2286 -5.6081 0.9779
0.2571 -5.5488 0.9711
0.2857 -5.4844 0.9548
0.3143 -5.4181 0.8722
0.3429 -5.4001 0.2051
0.3714 -5.4620 0.0275
0.4000 -5.5277 0.0093
0.4286 -5.5891 0.0045
0.4571 -5.6441 0.0027
0.4857 -5.6924 0.0018
0.5143 -5.7343 0.0013
0.5429 -5.7687 0.0010
0.5714 -5.7964 0.0008
0.6000 -5.8166 0.0006
0.6286 -5.8298 0.0005
0.6571 -5.8357 0.0005
0.6857 -5.8345 0.0004
0.7143 -5.8262 0.0004
0.7429 -5.8107 0.0003
0.7714 -5.7881 0.0003
0.8000 -5.7580 0.0003
0.8286 -5.7213 0.0003
0.8571 -5.6770 0.0003
0.8857 -5.6265 0.0003
0.9143 -5.5693 0.0003
0.9429 -5.5061 0.0003
0.9714 -5.4396 0.0004
0.0000 -4.5993 0.0033
0.0286 -4.6270 0.0033
0.0571 -4.6786 0.0036
0.0857 -4.7324 0.0040
0.1143 -4.7845 0.0046
0.1429 -4.8342 0.0055
0.1714 -4.8846 0.0066
0.2000 -4.9456 0.0075
0.2286 -5.0255 0.0082
0.2571 -5.1150 0.0114
0.2857 -5.2041 0.0233
0.3143 -5.2842 0.0995
0.3429 -5.3042 0.7563
0.3714 -5.2324 0.9154
0.4000 -5.1451 0.8956
0.4286 -5.0546 0.8098
0.4571 -4.9703 0.5930
0.4857 -4.9031 0.2910
0.5143 -4.8505 0.1260
0.5429 -4.8012 0.0637
0.5714 -4.7500 0.0377
0.6000 -4.6967 0.0253
0.6286 -4.6433 0.0185
0.6571 -4.6030 0.0127
0.6857 -4.6130 0.0050
0.7143 -4.6607 0.0021
0.7429 -4.7145 0.0012
0.7714 -4.7673 0.0009
0.8000 -4.8177 0.0007
0.8286 -4.8672 0.0007
0.8571 -4.9233 0.0006
0.8857 -4.9971 0.0005
0.9143 -5.0847 0.0004
0.9429 -5.1749 0.0003
0.9714 -5.2594 0.0002
0.0000 -4.5214 0.0018
0.0286 -4.5342 0.0009
0.0571 -4.5791 0.0003
0.0857 -4.6328 0.0004
0.1143 -4.6839 0.0005
0.1429 -4.7312 0.0005
0.1714 -4.7785 0.0004
0.2000 -4.8344 0.0011
0.2286 -4.8812 0.0036
0.2571 -4.9111 0.0064
0.2857 -4.9294 0.0096
0.3143 -4.9388 0.0142
0.3429 -4.9402 0.0216
0.3714 -4.9335 0.0350
0.4000 -4.9183 0.0630
0.4286 -4.8927 0.1293
0.4571 -4.8522 0.2668
0.4857 -4.7963 0.2541
0.5143 -4.7464 0.0775
0.5429 -4.7000 0.0275
0.5714 -4.6502 0.0130
0.6000 -4.5971 0.0066
0.6286 -4.5464 0.0016
0.6571 -4.5223 0.0038
0.6857 -4.5261 0.0081
0.7143 -4.5618 0.0063
0.7429 -4.6150 0.0029
0.7714 -4.6672 0.0018
0.8000 -4.7157 0.0013
0.8286 -4.7621 0.0009
0.8571 -4.8153 0.0003
0.8857 -4.8678 0.0001
0.9143 -4.9026 0.0001
0.9429 -4.9243 0.0002
0.9714 -4.9366 0.0002
0.0000 -4.4855 0.0001
0.0286 -4.5203 0.0003
0.0571 -4.5718 0.0005
0.0857 -4.6215 0.0004
0.1143 -4.6694 0.0003
0.1429 -4.7130 0.0002
0.1714 -4.7516 0.0003
0.2000 -4.7863 0.0007
0.2286 -4.8155 0.0013
0.2571 -4.8373 0.0018
0.2857 -4.8520 0.0024
0.3143 -4.8600 0.0032
0.3429 -4.8612 0.0046
0.3714 -4.8555 0.0070
0.4000 -4.8430 0.0117
0.4286 -4.8236 0.0222
0.4571 -4.7970 0.0422
0.4857 -4.7636 0.0259
0.5143 -4.7263 0.0093
0.5429 -4.6844 0.0050
0.5714 -4.6378 0.0038
0.6000 -4.5885 0.0041
0.6286 -4.5377 0.0067
0.6571 -4.4909 0.0051
0.6857 -4.5039 0.0022
0.7143 -4.5550 0.0003
0.7429 -4.6050 0.0012
0.7714 -4.6537 0.0010
0.8000 -4.6989 0.0009
0.8286 -4.7392 0.0008
0.8571 -4.7751 0.0009
0.8857 -4.8067 0.0009
0.9143 -4.8309 0.0008
0.9429 -4.8479 0.0007
0.9714 -4.8581 0.0007
0.0000 -4.4519 0.0001
0.0286 -4.4678 0.0005
0.0571 -4.5193 0.0005
0.0857 -4.5737 0.0005
0.1143 -4.6250 0.0005
0.1429 -4.6730 0.0005
0.1714 -4.7256 0.0006
0.2000 -4.7762 0.0009
0.2286 -4.8058 0.0006
0.2571 -4.8267 0.0006
0.2857 -4.8407 0.0006
0.3143 -4.8485 0.0008
0.3429 -4.8496 0.0011
0.3714 -4.8441 0.0017
0.4000 -4.8321 0.0034
0.4286 -4.8136 0.0094
0.4571 -4.7877 0.0475
0.4857 -4.7450 0.2502
0.5143 -4.6891 0.1122
0.5429 -4.6413 0.0264
0.5714 -4.5912 0.0098
0.6000 -4.5377 0.0043
0.6286 -4.4834 0.0014
0.6571 -4.4523 0.0004
0.6857 -4.4567 0.0007
0.7143 -4.5010 0.0006
0.7429 -4.5558 0.0004
0.7714 -4.6082 0.0003
0.8000 -4.6571 0.0002
0.8286 -4.7064 0.0001
0.8571 -4.7622 0.0001
0.8857 -4.7973 0.0002
0.9143 -4.8205 0.0003
0.9429 -4.8368 0.0003
0.9714 -4.8466 0.0003
0.0000 -4.3989 0.0006
0.0286 -4.3955 0.0007
0.0571 -4.3432 0.0015
0.0857 -4.3668 0.0007
0.1143 -4.4848 0.0008
0.1429 -4.6002 0.0010
0.1714 -4.6872 0.0013
0.2000 -4.7317 0.0012
0.2286 -4.7604 0.0013
0.2571 -4.7816 0.0015
0.2857 -4.7961 0.0018
0.3143 -4.8040 0.0024
0.3429 -4.8051 0.0032
0.3714 -4.7995 0.0046
0.4000 -4.7872 0.0074
0.4286 -4.7683 0.0139
0.4571 -4.7424 0.0351
0.4857 -4.7052 0.1611
0.5143 -4.6340 0.6519
0.5429 -4.5250 0.8407
0.5714 -4.4048 0.8474
0.6000 -4.3251 0.1740
0.6286 -4.3819 0.0027
0.6571 -4.4007 0.0010
0.6857 -4.4018 0.0020
0.7143 -4.3637 0.0034
0.7429 -4.3347 0.0022
0.7714 -4.4446 0.0007
0.8000 -4.5635 0.0004
0.8286 -4.6636 0.0004
0.8571 -4.7195 0.0003
0.8857 -4.7519 0.0003
0.9143 -4.7753 0.0002
0.9429 -4.7920 0.0002
0.9714 -4.8021 0.0002
0.0000 -4.3702 0.0001
0.0286 -4.3442 0.0007
0.0571 -4.2984 0.0005
0.0857 -4.2631 0.0013
0.1143 -4.1811 0.0015
0.1429 -4.0941 0.0015
0.1714 -4.0066 0.0015
0.2000 -3.9233 0.0014
0.2286 -3.8508 0.0012
0.2571 -3.7881 0.0010
0.2857 -3.7329 0.0009
0.3143 -3.6897 0.0007
0.3429 -3.6815 0.0003
0.3714 -3.7165 0.0001
0.4000 -3.7689 0.0001
0.4286 -3.8290 0.0001
0.4571 -3.8979 0.0002
0.4857 -3.9781 0.0003
0.5143 -4.0648 0.0007
0.5429 -4.1524 0.0018
0.5714 -4.2367 0.0074
0.6000 -4.2979 0.3475
0.6286 -4.3265 0.0526
0.6571 -4.3686 0.0079
0.6857 -4.3594 0.0009
0.7143 -4.3096 0.0013
0.7429 -4.2869 0.0022
0.7714 -4.2093 0.0030
0.8000 -4.1233 0.0028
0.8286 -4.0355 0.0025
0.8571 -3.9502 0.0021
0.8857 -3.8737 0.0014
0.9143 -3.8081 0.0009
0.9429 -3.7504 0.0006
0.9714 -3.7018 0.0006
0.0000 -4.3543 0.0008
0.0286 -4.3142 0.0003
0.0571 -4.2520 0.0001
0.0857 -4.1804 0.0001
0.1143 -4.0987 0.0001
0.1429 -4.0131 0.0001
0.1714 -3.9279 0.0001
0.2000 -3.8469 0.0002
0.2286 -3.7752 0.0003
0.2571 -3.7116 0.0003
0.2857 -3.6524 0.0003
0.3143 -3.6019 0.0004
0.3429 -3.5923 0.0009
0.3714 -3.6338 0.0005
0.4000 -3.6914 0.0004
0.4286 -3.7534 0.0004
0.4571 -3.8218 0.0004
0.4857 -3.9004 0.0001
0.5143 -3.9844 0.0004
0.5429 -4.0704 0.0027
0.5714 -4.1540 0.0098
0.6000 -4.2292 0.0274
0.6286 -4.2945 0.0108
0.6571 -4.3469 0.0029
0.6857 -4.3320 0.0004
0.7143 -4.2737 0.0005
0.7429 -4.2054 0.0010
0.7714 -4.1267 0.0011
0.8000 -4.0417 0.0011
0.8286 -3.9560 0.0009
0.8571 -3.8733 0.0008
0.8857 -3.7979 0.0013
0.9143 -3.7322 0.0016
0.9429 -3.6716 0.0016
0.9714 -3.6166 0.0014
0.0000 -4.3259 0.0002
0.0286 -4.2884 0.0002
0.0571 -4.2214 0.0002
0.0857 -4.1574 0.0003
0.1143 -4.0804 0.0003
0.1429 -3.9979 0.0003
0.1714 -3.9146 0.0003
0.2000 -3.8339 0.0003
0.2286 -3.7563 0.0006
0.2571 -3.6841 0.0007
0.2857 -3.6274 0.0006
0.3143 -3.5867 0.0003
0.3429 -3.5770 0.0002
0.3714 -3.6118 0.0010
0.4000 -3.6635 0.0014
0.4286 -3.7309 0.0018
0.4571 -3.8080 0.0025
0.4857 -3.8873 0.0047
0.5143 -3.9701 0.0077
0.5429 -4.0532 0.0130
0.5714 -4.1329 0.0327
0.6000 -4.2000 0.0847
0.6286 -4.2668 0.0167
0.6571 -4.3209 0.0072
0.6857 -4.3073 0.0048
0.7143 -4.2441 0.0024
0.7429 -4.1796 0.0002
0.7714 -4.1071 0.0003
0.8000 -4.0257 0.0004
0.8286 -3.9422 0.0006
0.8571 -3.8604 0.0009
0.8857 -3.7822 0.0007
0.9143 -3.7066 0.0004
0.9429 -3.6445 0.0003
0.9714 -3.5983 0.0002
0.0000 -3.9599 0.0002
0.0286 -4.0443 0.0005
0.0571 -4.1512 0.0006
0.0857 -4.1243 0.0004
0.1143 -4.0417 0.0004
0.1429 -3.9521 0.0003
0.1714 -3.8598 0.0004
0.2000 -3.7726 0.0006
0.2286 -3.6960 0.0004
0.2571 -3.6273 0.0002
0.2857 -3.5802 0.0002
0.3143 -3.5469 0.0002
0.3429 -3.5472 0.0004
0.3714 -3.5663 0.0007
0.4000 -3.6107 0.0009
0.4286 -3.6710 0.0011
0.4571 -3.7467 0.0018
0.4857 -3.8295 0.0020
0.5143 -3.9214 0.0027
0.5429 -4.0123 0.0056
0.5714 -4.0982 0.0206
0.6000 -4.1593 0.2982
0.6286 -4.0858 0.8290
0.6571 -3.9674 0.4597
0.6857 -4.0018 0.0146
0.7143 -4.1234 0.0029
0.7429 -4.1467 0.0027
0.7714 -4.0704 0.0019
0.8000 -3.9824 0.0015
0.8286 -3.8906 0.0011
0.8571 -3.8002 0.0009
0.8857 -3.7212 0.0007
0.9143 -3.6468 0.0007
0.9429 -3.5950 0.0005
0.9714 -3.5545 0.0006
0.0000 -3.9345 0.0013
0.0286 -3.9525 0.0005
0.0571 -3.9429 0.0005
0.0857 -3.9260 0.0005
0.1143 -3.9015 0.0005
0.1429 -3.8684 0.0004
0.1714 -3.8225 0.0004
0.2000 -3.7544 0.0002
0.2286 -3.6789 0.0001
0.2571 -3.6163 0.0002
0.2857 -3.5364 0.0004
0.3143 -3.5262 0.0012
0.3429 -3.5265 0.0009
0.3714 -3.5222 0.0004
0.4000 -3.5892 0.0002
0.4286 -3.6592 0.0005
0.4571 -3.7272 0.0001
0.4857 -3.8031 0.0002
0.5143 -3.8548 0.0002
0.5429 -3.8915 0.0001
0.5714 -3.9188 0.0002
0.6000 -3.9381 0.0004
0.6286 -3.9503 0.0023
0.6571 -3.9499 0.2505
0.6857 -3.9537 0.0015
0.7143 -3.9470 0.0010
0.7429 -3.9324 0.0007
0.7714 -3.9106 0.0006
0.8000 -3.8802 0.0006
0.8286 -3.8396 0.0006
0.8571 -3.7804 0.0005
0.8857 -3.7015 0.0003
0.9143 -3.6400 0.0006
0.9429 -3.5616 0.0013
0.9714 -3.5223 0.0011
0.0000 -3.9007 0.0001
0.0286 -3.8692 0.0005
0.0571 -3.8564 0.0004
0.0857 -3.8399 0.0003
0.1143 -3.8178 0.0003
0.1429 -3.7898 0.0003
0.1714 -3.7546 0.0003
0.2000 -3.7097 0.0003
0.2286 -3.6484 0.0004
0.2571 -3.5741 0.0006
0.2857 -3.5088 0.0007
0.3143 -3.4722 0.0004
0.3429 -3.4781 0.0007
0.3714 -3.4907 0.0002
0.4000 -3.5489 0.0010
0.4286 -3.6254 0.0011
0.4571 -3.6910 0.0018
0.4857 -3.7411 0.0016
0.5143 -3.7789 0.0018
0.5429 -3.8091 0.0021
0.5714 -3.8333 0.0025
0.6000 -3.8515 0.0031
0.6286 -3.8648 0.0046
0.6571 -3.8885 0.0455
0.6857 -3.8761 0.1435
0.7143 -3.8607 0.0079
0.7429 -3.8460 0.0013
0.7714 -3.8259 0.0009
0.8000 -3.7994 0.0010
0.8286 -3.7672 0.0011
0.8571 -3.7261 0.0012
0.8857 -3.6697 0.0013
0.9143 -3.6001 0.0006
0.9429 -3.5265 0.0006
0.9714 -3.4726 0.0009
0.0000 -3.8625 0.0002
0.0286 -3.8560 0.0003
0.0571 -3.8417 0.0004
0.0857 -3.8231 0.0005
0.1143 -3.7997 0.0004
0.1429 -3.7720 0.0003
0.1714 -3.7392 0.0002
0.2000 -3.6997 0.0002
0.2286 -3.6418 0.0003
0.2571 -3.5515 0.0002
0.2857 -3.4735 0.0003
0.3143 -3.4348 0.0003
0.3429 -3.4175 0.0002
0.3714 -3.4602 0.0011
0.4000 -3.5220 0.0006
0.4286 -3.6128 0.0009
0.4571 -3.6844 0.0006
0.4857 -3.7269 0.0013
0.5143 -3.7617 0.0022
0.5429 -3.7908 0.0038
0.5714 -3.8160 0.0060
0.6000 -3.8360 0.0094
0.6286 -3.8516 0.0174
0.6571 -3.8622 0.0284
0.6857 -3.8598 0.0633
0.7143 -3.8468 0.0368
0.7429 -3.8299 0.0141
0.7714 -3.8081 0.0049
0.8000 -3.7813 0.0014
0.8286 -3.7508 0.0006
0.8571 -3.7137 0.0005
0.8857 -3.6665 0.0006
0.9143 -3.5821 0.0011
0.9429 -3.4951 0.0010
0.9714 -3.4526 0.0007
0.0000 -3.8262 0.0002
0.0286 -3.8321 0.0002
0.0571 -3.8263 0.0002
0.0857 -3.8115 0.0002
0.1143 -3.7880 0.0003
0.1429 -3.7533 0.0004
0.1714 -3.7053 0.0005
0.2000 -3.6429 0.0004
0.2286 -3.5686 0.0004
0.2571 -3.4892 0.0004
0.2857 -3.4262 0.0004
0.3143 -3.4070 0.0003
0.3429 -3.4093 0.0006
0.3714 -3.4100 0.0004
0.4000 -3.4651 0.0002
0.4286 -3.5420 0.0001
0.4571 -3.6193 0.0001
0.4857 -3.6862 0.0001
0.5143 -3.7388 0.0002
0.5429 -3.7777 0.0001
0.5714 -3.8049 0.0011
0.6000 -3.8223 0.0052
0.6286 -3.8314 0.0205
0.6571 -3.8287 0.0895
0.6857 -3.8312 0.0053
0.7143 -3.8294 0.0005
0.7429 -3.8174 0.0016
0.7714 -3.7970 0.0027
0.8000 -3.7659 0.0026
0.8286 -3.7228 0.0015
0.8571 -3.6653 0.0007
0.8857 -3.5945 0.0003
0.9143 -3.5152 0.0002
0.9429 -3.4443 0.0002
0.9714 -3.4056 0.0005
0.0000 -3.7843 0.0002
0.0286 -3.6941 0.0002
0.0571 -3.5398 0.0002
0.0857 -3.3723 0.0002
0.1143 -3.2004 0.0002
0.1429 -3.0511 0.0001
0.1714 -3.1269 0.0001
0.2000 -3.2096 0.0002
0.2286 -3.2866 0.0002
0.2571 -3.3524 0.0002
0.2857 -3.3912 0.0001
0.3143 -3.3736 0.0003
0.3429 -3.3684 0.0001
0.3714 -3.3947 0.0009
0.4000 -3.3695 0.0011
0.4286 -3.3103 0.0010
0.4571 -3.2360 0.0009
0.4857 -3.1549 0.0009
0.5143 -3.0698 0.0008
0.5429 -3.1442 0.0007
0.5714 -3.3151 0.0012
0.6000 -3.4848 0.0023
0.6286 -3.6452 0.0071
0.6571 -3.7712 0.0760
0.6857 -3.7378 0.7366
0.7143 -3.5934 0.9200
0.7429 -3.4289 0.9477
0.7714 -3.2577 0.9422
0.8000 -3.0910 0.8438
0.8286 -3.0981 0.0029
0.8571 -3.1825 0.0005
0.8857 -3.2618 0.0002
0.9143 -3.3324 0.0002
0.9429 -3.3822 0.0002
0.9714 -3.3845 0.0005
0.0000 -2.6373 0.0001
0.0286 -2.6861 0.0001
0.0571 -2.7701 0.0001
0.0857 -2.8598 0.0001
0.1143 -2.9497 0.0001
0.1429 -3.0334 0.0002
0.1714 -3.0668 0.0002
0.2000 -3.1472 0.0002
0.2286 -3.2254 0.0002
0.2571 -3.2946 0.0002
0.2857 -3.3294 0.0002
0.3143 -3.3312 0.0003
0.3429 -3.3310 0.0007
0.3714 -3.3308 0.0001
0.4000 -3.3129 0.0005
0.4286 -3.2499 0.0005
0.4571 -3.1738 0.0006
0.4857 -3.0933 0.0006
0.5143 -3.0267 0.0008
0.5429 -2.9795 0.0010
0.5714 -2.8898 0.0010
0.6000 -2.7997 0.0011
0.6286 -2.7128 0.0010
0.6571 -2.6444 0.0005
0.6857 -2.6624 0.0005
0.7143 -2.7410 0.0004
0.7429 -2.8297 0.0005
0.7714 -2.9200 0.0010
0.8000 -3.0088 0.0100
0.8286 -3.0419 0.0703
0.8571 -3.1203 0.0080
0.8857 -3.1999 0.0028
0.9143 -3.2732 0.0015
0.9429 -3.3251 0.0008
0.9714 -3.3326 0.0004
0.0000 -2.6031 0.0000
0.0286 -2.6310 0.0001
0.0571 -2.7048 0.0002
0.0857 -2.7917 0.0002
0.1143 -2.8794 0.0002
0.1429 -2.9579 0.0002
0.1714 -3.0258 0.0003
0.2000 -3.1071 0.0003
0.2286 -3.1841 0.0003
0.2571 -3.2540 0.0003
0.2857 -3.3067 0.0003
0.3143 -3.3118 0.0003
0.3429 -3.3034 0.0005
0.3714 -3.3130 0.0003
0.4000 -3.2748 0.0002
0.4286 -3.2084 0.0003
0.4571 -3.1334 0.0004
0.4857 -3.0533 0.0004
0.5143 -2.9710 0.0002
0.5429 -2.9080 0.0006
0.5714 -2.8211 0.0007
0.6000 -2.7332 0.0007
0.6286 -2.6522 0.0006
0.6571 -2.6068 0.0005
0.6857 -2.6159 0.0007
0.7143 -2.6775 0.0021
0.7429 -2.7623 0.0035
0.7714 -2.8505 0.0080
0.8000 -2.9351 0.0432
0.8286 -2.9975 0.0020
0.8571 -3.0804 0.0004
0.8857 -3.1591 0.0005
0.9143 -3.2318 0.0005
0.9429 -3.2929 0.0007
0.9714 -3.3151 0.0011
0.0000 -2.5961 0.0001
0.0286 -2.6195 0.0002
0.0571 -2.6871 0.0002
0.0857 -2.7691 0.0002
0.1143 -2.8546 0.0002
0.1429 -2.9405 0.0002
0.1714 -2.9997 0.0003
0.2000 -3.0762 0.0003
0.2286 -3.1530 0.0003
0.2571 -3.2239 0.0004
0.2857 -3.2797 0.0005
0.3143 -3.2643 0.0003
0.3429 -3.2573 0.0002
0.3714 -3.2855 0.0003
0.4000 -3.2454 0.0002
0.4286 -3.1775 0.0002
0.4571 -3.1022 0.0002
0.4857 -3.0243 0.0002
0.5143 -2.9665 0.0006
0.5429 -2.8833 0.0006
0.5714 -2.7974 0.0007
0.6000 -2.7135 0.0008
0.6286 -2.6391 0.0014
0.6571 -2.5972 0.0023
0.6857 -2.6047 0.0009
0.7143 -2.6620 0.0003
0.7429 -2.7410 0.0004
0.7714 -2.8260 0.0006
0.8000 -2.9120 0.0014
0.8286 -2.9785 0.1276
0.8571 -3.0501 0.0159
0.8857 -3.1279 0.0055
0.9143 -3.2012 0.0027
0.9429 -3.2645 0.0014
0.9714 -3.2770 0.0002
0.0000 -2.5538 0.0001
0.0286 -2.5833 0.0001
0.0571 -2.6385 0.0002
0.0857 -2.7210 0.0002
0.1143 -2.8067 0.0003
0.1429 -2.8822 0.0003
0.1714 -2.8415 0.0002
0.2000 -2.8814 0.0002
0.2286 -2.9632 0.0002
0.2571 -3.0525 0.0002
0.2857 -3.1424 0.0003
0.3143 -3.2029 0.0003
0.3429 -3.2010 0.0002
0.3714 -3.1696 0.0003
0.4000 -3.0829 0.0003
0.4286 -2.9924 0.0003
0.4571 -2.9073 0.0003
0.4857 -2.8398 0.0002
0.5143 -2.8893 0.0001
0.5429 -2.8345 0.0001
0.5714 -2.7497 0.0001
0.6000 -2.6646 0.0001
0.6286 -2.5977 0.0002
0.6571 -2.5587 0.0004
0.6857 -2.5701 0.0014
0.7143 -2.6156 0.0016
0.7429 -2.6924 0.0037
0.7714 -2.7785 0.0095
0.8000 -2.8606 0.0498
0.8286 -2.8687 0.6117
0.8571 -2.8577 0.0470
0.8857 -2.9348 0.0080
0.9143 -3.0222 0.0035
0.9429 -3.1131 0.0023
0.9714 -3.1918 0.0019
0.0000 -2.5065 0.0006
0.0286 -2.5398 0.0006
0.0571 -2.5935 0.0004
0.0857 -2.6310 0.0003
0.1143 -2.6752 0.0003
0.1429 -2.7289 0.0003
0.1714 -2.7791 0.0004
0.2000 -2.8066 0.0003
0.2286 -2.8878 0.0003
0.2571 -2.9798 0.0003
0.2857 -3.0752 0.0003
0.3143 -3.1638 0.0003
0.3429 -3.1812 0.0002
0.3714 -3.1065 0.0003
0.4000 -3.0115 0.0004
0.4286 -2.9178 0.0004
0.4571 -2.8315 0.0005
0.4857 -2.7792 0.0003
0.5143 -2.7482 0.0003
0.5429 -2.6921 0.0003
0.5714 -2.6447 0.0003
0.6000 -2.6060 0.0004
0.6286 -2.5605 0.0005
0.6571 -2.5093 0.0013
0.6857 -2.5210 0.0014
0.7143 -2.5789 0.0014
0.7429 -2.6183 0.0015
0.7714 -2.6594 0.0028
0.8000 -2.7105 0.0079
0.8286 -2.7666 0.0625
0.8571 -2.7870 0.1174
0.8857 -2.8589 0.0118
0.9143 -2.9484 0.0030
0.9429 -3.0434 0.0012
0.9714 -3.1367 0.0007
0.0000 -2.4958 0.0002
0.0286 -2.4916 0.0001
0.0571 -2.5058 0.0002
0.0857 -2.5366 0.0002
0.1143 -2.5814 0.0002
0.1429 -2.6378 0.0001
0.1714 -2.7003 0.0001
0.2000 -2.7679 0.0002
0.2286 -2.8518 0.0003
0.2571 -2.9430 0.0003
0.2857 -3.0361 0.0003
0.3143 -3.1189 0.0003
0.3429 -3.1383 0.0005
0.3714 -3.0660 0.0003
0.4000 -2.9742 0.0003
0.4286 -2.8817 0.0002
0.4571 -2.7946 0.0002
0.4857 -2.7207 0.0004
0.5143 -2.6585 0.0008
0.5429 -2.5990 0.0009
0.5714 -2.5501 0.0009
0.6000 -2.5143 0.0010
0.6286 -2.4939 0.0008
0.6571 -2.4949 0.0002
0.6857 -2.4924 0.0025
0.7143 -2.4988 0.0039
0.7429 -2.5247 0.0053
0.7714 -2.5651 0.0080
0.8000 -2.6184 0.0150
0.8286 -2.6796 0.0436
0.8571 -2.7430 0.0441
0.8857 -2.8227 0.0113
0.9143 -2.9121 0.0051
0.9429 -3.0053 0.0031
0.9714 -3.0942 0.0022
0.0000 -2.4664 0.0002
0.0286 -2.4645 0.0001
0.0571 -2.4729 0.0001
0.0857 -2.5053 0.0002
0.1143 -2.5510 0.0002
0.1429 -2.6075 0.0003
0.1714 -2.6623 0.0003
0.2000 -2.7250 0.0001
0.2286 -2.8122 0.0001
0.2571 -2.9058 0.0001
0.2857 -3.0031 0.0001
0.3143 -3.0984 0.0002
0.3429 -3.1255 0.0002
0.3714 -3.0356 0.0003
0.4000 -2.9380 0.0004
0.4286 -2.8428 0.0004
0.4571 -2.7532 0.0004
0.4857 -2.6732 0.0007
0.5143 -2.6276 0.0005
0.5429 -2.5688 0.0004
0.5714 -2.5192 0.0004
0.6000 -2.4819 0.0004
0.6286 -2.4628 0.0006
0.6571 -2.4687 0.0008
0.6857 -2.4686 0.0003
0.7143 -2.4661 0.0007
0.7429 -2.4929 0.0014
0.7714 -2.5345 0.0027
0.8000 -2.5882 0.0081
0.8286 -2.6471 0.0576
0.8571 -2.6979 0.0071
0.8857 -2.7823 0.0012
0.9143 -2.8740 0.0007
0.9429 -2.9705 0.0006
0.9714 -3.0677 0.0006
0.0000 -2.4379 0.0002
0.0286 -2.4368 0.0003
0.0571 -2.4476 0.0002
0.0857 -2.4753 0.0001
0.1143 -2.5191 0.0001
0.1429 -2.5762 0.0001
0.1714 -2.6441 0.0002
0.2000 -2.5749 0.0002
0.2286 -2.3890 0.0002
0.2571 -2.1888 0.0002
0.2857 -1.9836 0.0002
0.3143 -1.7802 0.0002
0.3429 -1.7177 0.0002
0.3714 -1.9151 0.0003
0.4000 -2.1207 0.0003
0.4286 -2.3232 0.0004
0.4571 -2.5163 0.0005
0.4857 -2.6557 0.0004
0.5143 -2.5979 0.0004
0.5429 -2.5368 0.0004
0.5714 -2.4883 0.0005
0.6000 -2.4547 0.0005
0.6286 -2.4395 0.0003
0.6571 -2.4341 0.0003
0.6857 -2.4339 0.0011
0.7143 -2.4426 0.0009
0.7429 -2.4641 0.0006
0.7714 -2.5030 0.0005
0.8000 -2.5563 0.0006
0.8286 -2.6207 0.0033
0.8571 -2.6255 0.7411
0.8857 -2.4539 0.9381
0.9143 -2.2563 0.9568
0.9429 -2.0522 0.9503
0.9714 -1.8473 0.9105
0.0000 -2.4238 0.0002
0.0286 -2.3996 0.0001
0.0571 -2.3379 0.0001
0.0857 -2.2549 0.0001
0.1143 -2.1671 0.0001
0.1429 -2.0797 0.0001
0.1714 -1.9944 0.0001
0.2000 -1.9106 0.0001
0.2286 -1.8289 0.0001
0.2571 -1.7503 0.0001
0.2857 -1.6758 0.0001
0.3143 -1.6166 0.0001
0.3429 -1.6197 0.0001
0.3714 -1.6528 0.0001
0.4000 -1.7250 0.0001
0.4286 -1.8022 0.0001
0.4571 -1.8828 0.0001
0.4857 -1.9663 0.0001
0.5143 -2.0515 0.0001
0.5429 -2.1379 0.0001
0.5714 -2.2258 0.0001
0.6000 -2.3114 0.0002
0.6286 -2.3829 0.0005
0.6571 -2.4229 0.0010
0.6857 -2.4136 0.0007
0.7143 -2.3622 0.0009
0.7429 -2.2834 0.0014
0.7714 -2.1967 0.0017
0.8000 -2.1088 0.0022
0.8286 -2.0229 0.0028
0.8571 -1.9383 0.0038
0.8857 -1.8557 0.0054
0.9143 -1.7761 0.0087
0.9429 -1.7002 0.0168
0.9714 -1.6320 0.0557
0.0000 -2.3878 0.0001
0.0286 -2.3579 0.0002
0.0571 -2.2837 0.0003
0.0857 -2.1975 0.0003
0.1143 -2.1098 0.0003
0.1429 -2.0234 0.0003
0.1714 -1.9397 0.0003
0.2000 -1.8579 0.0003
0.2286 -1.7786 0.0003
0.2571 -1.7034 0.0003
0.2857 -1.6342 0.0003
0.3143 -1.5803 0.0002
0.3429 -1.5728 0.0002
0.3714 -1.6136 0.0001
0.4000 -1.6796 0.0002
0.4286 -1.7529 0.0002
0.4571 -1.8307 0.0002
0.4857 -1.9121 0.0002
0.5143 -1.9956 0.0003
0.5429 -2.0808 0.0003
0.5714 -2.1682 0.0003
0.6000 -2.2555 0.0003
0.6286 -2.3361 0.0002
0.6571 -2.3842 0.0004
0.6857 -2.3742 0.0005
0.7143 -2.3108 0.0007
0.7429 -2.2265 0.0009
0.7714 -2.1391 0.0011
0.8000 -2.0520 0.0013
0.8286 -1.9675 0.0017
0.8571 -1.8848 0.0022
0.8857 -1.8045 0.0032
0.9143 -1.7279 0.0052
0.9429 -1.6565 0.0109
0.9714 -1.5952 0.0403
0.0000 -2.3609 0.0001
0.0286 -2.3222 0.0001
0.0571 -2.2468 0.0002
0.0857 -2.1627 0.0002
0.1143 -2.0767 0.0002
0.1429 -1.9914 0.0002
0.1714 -1.9082 0.0002
0.2000 -1.8265 0.0002
0.2286 -1.7468 0.0002
0.2571 -1.6706 0.0002
0.2857 -1.6000 0.0002
0.3143 -1.5598 0.0002
0.3429 -1.5630 0.0002
0.3714 -1.5799 0.0003
0.4000 -1.6463 0.0003
0.4286 -1.7208 0.0004
0.4571 -1.7993 0.0004
0.4857 -1.8807 0.0004
0.5143 -1.9638 0.0004
0.5429 -2.0481 0.0004
0.5714 -2.1341 0.0004
0.6000 -2.2193 0.0004
0.6286 -2.2989 0.0003
0.6571 -2.3559 0.0003
0.6857 -2.3420 0.0002
0.7143 -2.2735 0.0002
0.7429 -2.1910 0.0003
0.7714 -2.1055 0.0005
0.8000 -2.0197 0.0006
0.8286 -1.9359 0.0009
0.8571 -1.8534 0.0013
0.8857 -1.7729 0.0021
0.9143 -1.6955 0.0040
0.9429 -1.6227 0.0107
0.9714 -1.5645 0.0669
0.0000 -2.3180 0.0001
0.0286 -2.2822 0.0001
0.0571 -2.2066 0.0001
0.0857 -2.1206 0.0002
0.1143 -2.0328 0.0002
0.1429 -1.9460 0.0002
0.1714 -1.8617 0.0002
0.2000 -1.7791 0.0002
0.2286 -1.6986 0.0002
0.2571 -1.6216 0.0002
0.2857 -1.5492 0.0002
0.3143 -1.4931 0.0002
0.3429 -1.4878 0.0003
0.3714 -1.5271 0.0002
0.4000 -1.5969 0.0002
0.4286 -1.6724 0.0002
0.4571 -1.7516 0.0003
0.4857 -1.8339 0.0003
0.5143 -1.9181 0.0003
0.5429 -2.0037 0.0004
0.5714 -2.0913 0.0005
0.6000 -2.1785 0.0006
0.6286 -2.2593 0.0007
0.6571 -2.3136 0.0005
0.6857 -2.3010 0.0002
0.7143 -2.2337 0.0001
0.7429 -2.1496 0.0002
0.7714 -2.0622 0.0002
0.8000 -1.9748 0.0003
0.8286 -1.8898 0.0003
0.8571 -1.8063 0.0004
0.8857 -1.7249 0.0006
0.9143 -1.6468 0.0009
0.9429 -1.5728 0.0015
0.9714 -1.5072 0.0019
0.0000 -0.7144 0.0002
0.0286 -0.7513 0.0001
0.0571 -0.8215 0.0001
0.0857 -0.8979 0.0001
0.1143 -0.9746 0.0001
0.1429 -1.0508 0.0001
0.1714 -1.1260 0.0001
0.2000 -1.1999 0.0001
0.2286 -1.2726 0.0001
0.2571 -1.3445 0.0001
0.2857 -1.4162 0.0001
0.3143 -1.4701 0.0001
0.3429 -1.4653 0.0003
0.3714 -1.4390 0.0002
0.4000 -1.3684 0.0002
0.4286 -1.2966 0.0002
0.4571 -1.2242 0.0002
0.4857 -1.1507 0.0002
0.5143 -1.0762 0.0002
0.5429 -1.0001 0.0002
0.5714 -0.9236 0.0002
0.6000 -0.8467 0.0002
0.6286 -0.7731 0.0003
0.6571 -0.7194 0.0007
0.6857 -0.7326 0.0011
0.7143 -0.7968 0.0012
0.7429 -0.8722 0.0014
0.7714 -0.9493 0.0017
0.8000 -1.0255 0.0022
0.8286 -1.1011 0.0030
0.8571 -1.1752 0.0044
0.8857 -1.2485 0.0071
0.9143 -1.3206 0.0135
0.9429 -1.3927 0.0329
0.9714 -1.4594 0.1055
0.0000 -0.6732 0.0001
0.0286 -0.7041 0.0001
0.0571 -0.7648 0.0001
0.0857 -0.8360 0.0001
0.1143 -0.9103 0.0001
0.1429 -0.9852 0.0001
0.1714 -1.0596 0.0001
0.2000 -1.1327 0.0002
0.2286 -1.2042 0.0002
0.2571 -1.2734 0.0002
0.2857 -1.3396 0.0002
0.3143 -1.4113 0.0001
0.3429 -1.4379 0.0001
0.3714 -1.3601 0.0003
0.4000 -1.2959 0.0003
0.4286 -1.2274 0.0003
0.4571 -1.1567 0.0004
0.4857 -1.0841 0.0004
0.5143 -1.0103 0.0004
0.5429 -0.9353 0.0004
0.5714 -0.8607 0.0005
0.6000 -0.7878 0.0005
0.6286 -0.7224 0.0005
0.6571 -0.6776 0.0004
0.6857 -0.6887 0.0005
0.7143 -0.7428 0.0008
0.7429 -0.8117 0.0010
0.7714 -0.8856 0.0011
0.8000 -0.9603 0.0013
0.8286 -1.0350 0.0015
0.8571 -1.1083 0.0019
0.8857 -1.1805 0.0027
0.9143 -1.2506 0.0044
0.9429 -1.3183 0.0098
0.9714 -1.3822 0.1306
0.0000 -0.6366 0.0002
0.0286 -0.6671 0.0003
0.0571 -0.7373 0.0003
0.0857 -0.8137 0.0003
0.1143 -0.8904 0.0003
0.1429 -0.9666 0.0003
0.1714 -1.0420 0.0003
0.2000 -1.1161 0.0003
0.2286 -1.1889 0.0003
0.2571 -1.2605 0.0003
0.2857 -1.3316 0.0003
0.3143 -1.3932 0.0004
0.3429 -1.4063 0.0002
0.3714 -1.3549 0.0001
0.4000 -1.2841 0.0002
0.4286 -1.2127 0.0002
0.4571 -1.1405 0.0002
0.4857 -1.0667 0.0002
0.5143 -0.9920 0.0002
0.5429 -0.9159 0.0002
0.5714 -0.8394 0.0002
0.6000 -0.7625 0.0003
0.6286 -0.6888 0.0004
0.6571 -0.6390 0.0007
0.6857 -0.6493 0.0006
0.7143 -0.7125 0.0006
0.7429 -0.7881 0.0006
0.7714 -0.8651 0.0007
0.8000 -0.9413 0.0008
0.8286 -1.0171 0.0010
0.8571 -1.0913 0.0014
0.8857 -1.1647 0.0021
0.9143 -1.2367 0.0037
0.9429 -1.3082 0.0094
0.9714 -1.3765 0.0151
0.0000 -0.6186 0.0002
0.0286 -0.6328 0.0002
0.0571 -0.6941 0.0002
0.0857 -0.7687 0.0002
0.1143 -0.8446 0.0002
0.1429 -0.9202 0.0002
0.1714 -0.9949 0.0002
0.2000 -1.0683 0.0002
0.2286 -1.1405 0.0002
0.2571 -1.2119 0.0002
0.2857 -1.2855 0.0002
0.3143 -1.3804 0.0003
0.3429 -1.3989 0.0003
0.3714 -1.3137 0.0002
0.4000 -1.2357 0.0003
0.4286 -1.1642 0.0003
0.4571 -1.0925 0.0003
0.4857 -1.0194 0.0004
0.5143 -0.9454 0.0004
0.5429 -0.8699 0.0005
0.5714 -0.7941 0.0006
0.6000 -0.7184 0.0008
0.6286 -0.6497 0.0011
0.6571 -0.6200 0.0010
0.6857 -0.6235 0.0009
0.7143 -0.6708 0.0009
0.7429 -0.7434 0.0009
0.7714 -0.8195 0.0011
0.8000 -0.8951 0.0013
0.8286 -0.9702 0.0017
0.8571 -1.0438 0.0025
0.8857 -1.1165 0.0042
0.9143 -1.1881 0.0091
0.9429 -1.2604 0.0361
0.9714 -1.3483 0.3136
0.0000 -0.5833 0.0001
0.0286 -0.5983 0.0001
0.0571 -0.6061 0.0001
0.0857 -0.6148 0.0001
0.1143 -0.6252 0.0001
0.1429 -0.6338 0.0001
0.1714 -0.6384 0.0001
0.2000 -0.6461 0.0001
0.2286 -0.7673 0.0002
0.2571 -0.9819 0.0002
0.2857 -1.1913 0.0002
0.3143 -1.3211 0.0002
0.3429 -1.3369 0.0002
0.3714 -1.2506 0.0002
0.4000 -1.0539 0.0002
0.4286 -0.8371 0.0002
0.4571 -0.6630 0.0002
0.4857 -0.6393 0.0002
0.5143 -0.6358 0.0003
0.5429 -0.6284 0.0003
0.5714 -0.6183 0.0004
0.6000 -0.6085 0.0004
0.6286 -0.6017 0.0004
0.6571 -0.5838 0.0003
0.6857 -0.5911 0.0006
0.7143 -0.6039 0.0003
0.7429 -0.6116 0.0006
0.7714 -0.6218 0.0014
0.8000 -0.6314 0.0034
0.8286 -0.6373 0.0100
0.8571 -0.6411 0.0564
0.8857 -0.7052 0.6942
0.9143 -0.9092 0.9162
0.9429 -1.1244 0.8762
0.9714 -1.2943 0.3235
0.0000 -0.5683 0.0001
0.0286 -0.5642 0.0001
0.0571 -0.5735 0.0001
0.0857 -0.5904 0.0001
0.1143 -0.6062 0.0001
0.1429 -0.6180 0.0001
0.1714 -0.6233 0.0001
0.2000 -0.6207 0.0001
0.2286 -0.6093 0.0001
0.2571 -0.5880 0.0001
0.2857 -0.5590 0.0001
0.3143 -0.5300 0.0001
0.3429 -0.5240 0.0001
0.3714 -0.5486 0.0002
0.4000 -0.5790 0.0002
0.4286 -0.6032 0.0002
0.4571 -0.6179 0.0002
0.4857 -0.6234 0.0002
0.5143 -0.6206 0.0002
0.5429 -0.6107 0.0002
0.5714 -0.5960 0.0002
0.6000 -0.5791 0.0002
0.6286 -0.5637 0.0003
0.6571 -0.5717 0.0007
0.6857 -0.5694 0.0003
0.7143 -0.5679 0.0007
0.7429 -0.5849 0.0008
0.7714 -0.6013 0.0010
0.8000 -0.6148 0.0013
0.8286 -0.6224 0.0024
0.8571 -0.6225 0.0052
0.8857 -0.6142 0.0075
0.9143 -0.5961 0.0043
0.9429 -0.5692 0.0023
0.9714 -0.5387 0.0018
0.0000 -0.5435 0.0002
0.0286 -0.5449 0.0002
0.0571 -0.5459 0.0002
0.0857 -0.5537 0.0002
0.1143 -0.5671 0.0002
0.1429 -0.5798 0.0001
0.1714 -0.5882 0.0001
0.2000 -0.5905 0.0001
0.2286 -0.5956 0.0001
0.2571 -0.5793 0.0001
0.2857 -0.5514 0.0001
0.3143 -0.5223 0.0001
0.3429 -0.5160 0.0002
0.3714 -0.5411 0.0002
0.4000 -0.5708 0.0003
0.4286 -0.5923 0.0003
0.4571 -0.5918 0.0003
0.4857 -0.5895 0.0004
0.5143 -0.5832 0.0004
0.5429 -0.5716 0.0003
0.5714 -0.5580 0.0003
0.6000 -0.5473 0.0003
0.6286 -0.5464 0.0002
0.6571 -0.5409 0.0003
0.6857 -0.5411 0.0008
0.7143 -0.5457 0.0008
0.7429 -0.5502 0.0010
0.7714 -0.5625 0.0010
0.8000 -0.5760 0.0008
0.8286 -0.5860 0.0013
0.8571 -0.5902 0.0083
0.8857 -0.5951 0.0844
0.9143 -0.5866 0.0147
0.9429 -0.5614 0.0046
0.9714 -0.5311 0.0019
0.0000 -0.4925 0.0002
0.0286 -0.5085 0.0001
0.0571 -0.5217 0.0001
0.0857 -0.5385 0.0001
0.1143 -0.5556 0.0002
0.1429 -0.5681 0.0002
0.1714 -0.5726 0.0002
0.2000 -0.5697 0.0002
0.2286 -0.5722 0.0002
0.2571 -0.5536 0.0002
0.2857 -0.5229 0.0002
0.3143 -0.4868 0.0002
0.3429 -0.4776 0.0003
0.3714 -0.5109 0.0003
0.4000 -0.5445 0.0003
0.4286 -0.5678 0.0003
0.4571 -0.5704 0.0002
0.4857 -0.5722 0.0002
0.5143 -0.5706 0.0002
0.5429 -0.5605 0.0002
0.5714 -0.5445 0.0003
0.6000 -0.5270 0.0003
0.6286 -0.5122 0.0002
0.6571 -0.4992 0.0003
0.6857 -0.5052 0.0006
0.7143 -0.5166 0.0011
0.7429 -0.5328 0.0015
0.7714 -0.5503 0.0023
0.8000 -0.5648 0.0040
0.8286 -0.5720 0.0076
0.8571 -0.5710 0.0229
0.8857 -0.5735 0.0835
0.9143 -0.5614 0.0108
0.9429 -0.5342 0.0041
0.9714 -0.4986 0.0020
0.0000 -0.4805 0.0001
0.0286 -0.4537 0.0001
0.0571 -0.3996 0.0001
0.0857 -0.3200 0.0001
0.1143 -0.2315 0.0001
0.1429 -0.1431 0.0002
0.1714 -0.2724 0.0002
0.2000 -0.4823 0.0002
0.2286 -0.5427 0.0002
0.2571 -0.5187 0.0002
0.2857 -0.4840 0.0002
0.3143 -0.4476 0.0002
0.3429 -0.4390 0.0002
0.3714 -0.4713 0.0002
0.4000 -0.5080 0.0002
0.4286 -0.5365 0.0002
0.4571 -0.5300 0.0002
0.4857 -0.3448 0.0002
0.5143 -0.1409 0.0001
0.5429 -0.2013 0.0006
0.5714 -0.2911 0.0006
0.6000 -0.3747 0.0007
0.6286 -0.4400 0.0008
0.6571 -0.4725 0.0007
0.6857 -0.4627 0.0005
0.7143 -0.4217 0.0004
0.7429 -0.3481 0.0005
0.7714 -0.2615 0.0009
0.8000 -0.1714 0.0059
0.8286 -0.2010 0.8431
0.8571 -0.4165 0.8562
0.8857 -0.5446 0.0902
0.9143 -0.5283 0.0046
0.9429 -0.4964 0.0019
0.9714 -0.4589 0.0014
0.0000 -0.4621 0.0001
0.0286 -0.4363 0.0001
0.0571 -0.3584 0.0001
0.0857 -0.2703 0.0001
0.1143 -0.1801 0.0001
0.1429 -0.1035 0.0001
0.1714 -0.0641 0.0001
0.2000 -0.0978 0.0002
0.2286 -0.1818 0.0002
0.2571 -0.2634 0.0002
0.2857 -0.3352 0.0003
0.3143 -0.3903 0.0003
0.3429 -0.4021 0.0003
0.3714 -0.3558 0.0002
0.4000 -0.2887 0.0002
0.4286 -0.2098 0.0002
0.4571 -0.1248 0.0003
0.4857 -0.0611 0.0004
0.5143 -0.1042 0.0007
0.5429 -0.1508 0.0004
0.5714 -0.2403 0.0004
0.6000 -0.3296 0.0005
0.6286 -0.4125 0.0004
0.6571 -0.4633 0.0003
0.6857 -0.4555 0.0004
0.7143 -0.3862 0.0004
0.7429 -0.3002 0.0008
0.7714 -0.2101 0.0023
0.8000 -0.1232 0.0271
0.8286 -0.0823 0.0174
0.8571 -0.0747 0.0068
0.8857 -0.1534 0.0028
0.9143 -0.2370 0.0015
0.9429 -0.3127 0.0009
0.9714 -0.3744 0.0005
0.0000 -0.4557 0.0001
0.0286 -0.4026 0.0002
0.0571 -0.3225 0.0002
0.0857 -0.2354 0.0002
0.1143 -0.1448 0.0002
0.1429 -0.0588 0.0002
0.1714 -0.0177 0.0001
0.2000 -0.0692 0.0002
0.2286 -0.1591 0.0002
0.2571 -0.2427 0.0002
0.2857 -0.3167 0.0002
0.3143 -0.3752 0.0001
0.3429 -0.3875 0.0001
0.3714 -0.3383 0.0001
0.4000 -0.2686 0.0001
0.4286 -0.1879 0.0001
0.4571 -0.0994 0.0001
0.4857 -0.0128 0.0002
0.5143 -0.0529 0.0003
0.5429 -0.1142 0.0002
0.5714 -0.2055 0.0003
0.6000 -0.2939 0.0003
0.6286 -0.3770 0.0004
0.6571 -0.4456 0.0004
0.6857 -0.4261 0.0004
0.7143 -0.3502 0.0006
0.7429 -0.2649 0.0007
0.7714 -0.1753 0.0011
0.8000 -0.0837 0.0063
0.8286 -0.0343 0.0305
0.8571 -0.0392 0.0012
0.8857 -0.1297 0.0016
0.9143 -0.2157 0.0018
0.9429 -0.2933 0.0021
0.9714 -0.3582 0.0030
0.0000 -0.3753 0.0002
0.0286 -0.3467 0.0002
0.0571 -0.2801 0.0002
0.0857 -0.1979 0.0002
0.1143 -0.1115 0.0002
0.1429 -0.0511 0.0002
0.1714 0.0149 0.0001
0.2000 -0.0478 0.0002
0.2286 -0.1416 0.0002
0.2571 -0.2270 0.0002
0.2857 -0.2994 0.0002
0.3143 -0.3454 0.0001
0.3429 -0.3500 0.0001
0.3714 -0.3187 0.0001
0.4000 -0.2530 0.0001
0.4286 -0.1712 0.0002
0.4571 -0.0794 0.0002
0.4857 -0.0008 0.0002
0.5143 -0.0228 0.0002
0.5429 -0.0843 0.0002
0.5714 -0.1691 0.0002
0.6000 -0.2537 0.0002
0.6286 -0.3273 0.0002
0.6571 -0.3719 0.0003
0.6857 -0.3620 0.0007
0.7143 -0.3049 0.0015
0.7429 -0.2262 0.0036
0.7714 -0.1402 0.0116
0.8000 -0.0621 0.1159
0.8286 0.0044 0.0012
0.8571 -0.0176 0.0016
0.8857 -0.1110 0.0009
0.9143 -0.1997 0.0010
0.9429 -0.2772 0.0012
0.9714 -0.3346 0.0017
0.0000 0.7632 0.0003
0.0286 0.6450 0.0002
0.0571 0.5081 0.0002
0.0857 0.3737 0.0002
0.1143 0.2089 0.0002
0.1429 0.0347 0.0002
0.1714 0.0470 0.0003
0.2000 0.0017 0.0002
0.2286 -0.0866 0.0002
0.2571 -0.1739 0.0002
0.2857 -0.2524 0.0002
0.3143 -0.3160 0.0002
0.3429 -0.3311 0.0002
0.3714 -0.2755 0.0002
0.4000 -0.2013 0.0002
0.4286 -0.1165 0.0002
0.4571 -0.0260 0.0002
0.4857 0.0307 0.0003
0.5143 0.0354 0.0002
0.5429 0.1406 0.0003
0.5714 0.3268 0.0004
0.6000 0.4633 0.0007
0.6286 0.5991 0.0012
0.6571 0.7352 0.0028
0.6857 0.6909 0.0030
0.7143 0.5533 0.0093
0.7429 0.4187 0.0376
0.7714 0.2728 0.4647
0.8000 0.0760 0.7244
0.8286 0.0468 0.0234
0.8571 0.0202 0.0136
0.8857 -0.0563 0.0102
0.9143 -0.1456 0.0066
0.9429 -0.2275 0.0045
0.9714 -0.2970 0.0031
0.0000 0.7805 0.0002
0.0286 0.6816 0.0001
0.0571 0.5475 0.0001
0.0857 0.4149 0.0001
0.1143 0.2646 0.0002
0.1429 0.1451 0.0002
0.1714 0.0595 0.0002
0.2000 0.0853 0.0002
0.2286 0.1742 0.0002
0.2571 0.2710 0.0002
0.2857 0.3678 0.0002
0.3143 0.4609 0.0003
0.3429 0.4888 0.0003
0.3714 0.3996 0.0004
0.4000 0.3033 0.0004
0.4286 0.2062 0.0004
0.4571 0.1125 0.0004
0.4857 0.0640 0.0002
0.5143 0.1103 0.0003
0.5429 0.2223 0.0004
0.5714 0.3652 0.0005
0.6000 0.5033 0.0002
0.6286 0.6370 0.0003
0.6571 0.7627 0.0018
0.6857 0.7247 0.0019
0.7143 0.5921 0.0033
0.7429 0.4594 0.0182
0.7714 0.3117 0.2437
0.8000 0.1826 0.0250
0.8286 0.0818 0.0143
0.8571 0.0683 0.0017
0.8857 0.1426 0.0004
0.9143 0.2386 0.0005
0.9429 0.3357 0.0006
0.9714 0.4307 0.0007
0.0000 0.7921 0.0002
0.0286 0.6881 0.0003
0.0571 0.5543 0.0003
0.0857 0.4215 0.0003
0.1143 0.2941 0.0001
0.1429 0.1778 0.0002
0.1714 0.1052 0.0002
0.2000 0.1436 0.0002
0.2286 0.2374 0.0002
0.2571 0.3346 0.0001
0.2857 0.4304 0.0001
0.3143 0.5131 0.0001
0.3429 0.5259 0.0004
0.3714 0.4610 0.0004
0.4000 0.3667 0.0004
0.4286 0.2697 0.0004
0.4571 0.1741 0.0004
0.4857 0.1001 0.0004
0.5143 0.1421 0.0003
0.5429 0.2543 0.0004
0.5714 0.3771 0.0007
0.6000 0.5100 0.0010
0.6286 0.6438 0.0017
0.6571 0.7688 0.0035
0.6857 0.7308 0.0042
0.7143 0.5990 0.0042
0.7429 0.4659 0.0182
0.7714 0.3349 0.0127
0.8000 0.2155 0.0033
0.8286 0.1129 0.0101
0.8571 0.1160 0.0005
0.8857 0.2054 0.0005
0.9143 0.3022 0.0006
0.9429 0.3989 0.0006
0.9714 0.4894 0.0007
0.0000 0.8091 0.0001
0.0286 0.7335 0.0002
0.0571 0.5908 0.0002
0.0857 0.4338 0.0002
0.1143 0.2998 0.0003
0.1429 0.1867 0.0002
0.1714 0.1162 0.0002
0.2000 0.1739 0.0001
0.2286 0.2608 0.0002
0.2571 0.3551 0.0002
0.2857 0.4481 0.0003
0.3143 0.5352 0.0003
0.3429 0.5605 0.0002
0.3714 0.4780 0.0002
0.4000 0.3863 0.0003
0.4286 0.2920 0.0003
0.4571 0.2009 0.0004
0.4857 0.1336 0.0002
0.5143 0.1548 0.0003
0.5429 0.2601 0.0003
0.5714 0.3842 0.0002
0.6000 0.5406 0.0004
0.6286 0.6872 0.0006
0.6571 0.8144 0.0029
0.6857 0.7774 0.0448
0.7143 0.6395 0.0992
0.7429 0.4881 0.2674
0.7714 0.3409 0.0184
0.8000 0.2222 0.0017
0.8286 0.1286 0.0024
0.8571 0.1515 0.0076
0.8857 0.2302 0.0011
0.9143 0.3235 0.0006
0.9429 0.4175 0.0004
0.9714 0.5070 0.0004
0.0000 0.8303 0.0003
0.0286 0.9196 0.0001
0.0571 0.7527 0.0002
0.0857 0.5449 0.0002
0.1143 0.3844 0.0002
0.1429 0.2564 0.0002
0.1714 0.1579 0.0001
0.2000 0.1993 0.0002
0.2286 0.2945 0.0002
0.2571 0.3909 0.0002
0.2857 0.4843 0.0002
0.3143 0.5607 0.0003
0.3429 0.5668 0.0002
0.3714 0.5135 0.0002
0.4000 0.4224 0.0002
0.4286 0.3267 0.0002
0.4571 0.2306 0.0002
0.4857 0.1499 0.0005
0.5143 0.2186 0.0003
0.5429 0.3392 0.0003
0.5714 0.4860 0.0003
0.6000 0.6800 0.0006
0.6286 0.8930 0.0018
0.6571 0.8416 0.0040
0.6857 0.8852 0.0322
0.7143 0.8257 0.7995
0.7429 0.6100 0.6220
0.7714 0.4329 0.2220
0.8000 0.2966 0.0676
0.8286 0.1845 0.0238
0.8571 0.1698 0.0039
0.8857 0.2623 0.0033
0.9143 0.3589 0.0022
0.9429 0.4538 0.0017
0.9714 0.5401 0.0016
0.0000 0.8865 0.0001
0.0286 0.9791 0.0003
0.0571 1.0820 0.0001
0.0857 1.1001 0.0003
0.1143 1.0730 0.0003
0.1429 1.0315 0.0003
0.1714 0.9791 0.0003
0.2000 0.9172 0.0004
0.2286 0.8471 0.0004
0.2571 0.7700 0.0004
0.2857 0.6876 0.0004
0.3143 0.6106 0.0004
0.3429 0.6006 0.0003
0.3714 0.6600 0.0003
0.4000 0.7431 0.0004
0.4286 0.8221 0.0005
0.4571 0.8947 0.0006
0.4857 0.9595 0.0008
0.5143 1.0152 0.0011
0.5429 1.0605 0.0017
0.5714 1.0931 0.0027
0.6000 1.1007 0.0029
0.6286 1.0008 0.0029
0.6571 0.9046 0.0008
0.6857 0.9424 0.0049
0.7143 1.0426 0.0256
0.7429 1.1036 0.0097
0.7714 1.0839 0.0048
0.8000 1.0467 0.0030
0.8286 0.9977 0.0021
0.8571 0.9391 0.0016
0.8857 0.8713 0.0013
0.9143 0.7964 0.0010
0.9429 0.7157 0.0008
0.9714 0.6333 0.0006
0.0000 0.9089 0.0002
0.0286 0.9884 0.0001
0.0571 1.1083 0.0002
0.0857 1.1701 0.0001
0.1143 1.1532 0.0002
0.1429 1.1117 0.0002
0.1714 1.0573 0.0002
0.2000 0.9930 0.0002
0.2286 0.9204 0.0003
0.2571 0.8411 0.0003
0.2857 0.7561 0.0003
0.3143 0.6707 0.0002
0.3429 0.6470 0.0002
0.3714 0.7273 0.0002
0.4000 0.8133 0.0002
0.4286 0.8947 0.0002
0.4571 0.9697 0.0002
0.4857 1.0369 0.0002
0.5143 1.0948 0.0002
0.5429 1.1412 0.0003
0.5714 1.1690 0.0006
0.6000 1.1426 0.0006
0.6286 1.0306 0.0020
0.6571 0.9219 0.0026
0.6857 0.9546 0.0159
0.7143 1.0721 0.0013
0.7429 1.1628 0.0006
0.7714 1.1628 0.0007
0.8000 1.1273 0.0008
0.8286 1.0766 0.0008
0.8571 1.0157 0.0008
0.8857 0.9455 0.0007
0.9143 0.8682 0.0007
0.9429 0.7851 0.0007
0.9714 0.6985 0.0007
0.0000 0.9363 0.0003
0.0286 1.0184 0.0002
0.0571 1.1194 0.0001
0.0857 1.1974 0.0004
0.1143 1.1759 0.0004
0.1429 1.1342 0.0003
0.1714 1.0814 0.0003
0.2000 1.0192 0.0003
0.2286 0.9492 0.0003
0.2571 0.8732 0.0003
0.2857 0.7936 0.0003
0.3143 0.7213 0.0003
0.3429 0.7050 0.0002
0.3714 0.7678 0.0002
0.4000 0.8469 0.0002
0.4286 0.9244 0.0003
0.4571 0.9967 0.0003
0.4857 1.0617 0.0004
0.5143 1.1177 0.0005
0.5429 1.1634 0.0007
0.5714 1.1944 0.0011
0.6000 1.1522 0.0063
0.6286 1.0485 0.0019
0.6571 0.9568 0.0210
0.6857 0.9940 0.0445
0.7143 1.0859 0.0164
0.7429 1.1858 0.0012
0.7714 1.1864 0.0010
0.8000 1.1496 0.0008
0.8286 1.1001 0.0007
0.8571 1.0411 0.0006
0.8857 0.9733 0.0005
0.9143 0.8990 0.0004
0.9429 0.8204 0.0004
0.9714 0.7432 0.0004
0.0000 1.1394 0.0005
0.0286 1.0529 0.0003
0.0571 1.1619 0.0004
0.0857 1.2328 0.0001
0.1143 1.2065 0.0001
0.1429 1.1640 0.0001
0.1714 1.1110 0.0001
0.2000 1.0488 0.0001
0.2286 0.9788 0.0001
0.2571 0.9024 0.0001
0.2857 0.8218 0.0001
0.3143 0.7461 0.0001
0.3429 0.7281 0.0002
0.3714 0.7952 0.0002
0.4000 0.8759 0.0002
0.4286 0.9539 0.0003
0.4571 1.0262 0.0003
0.4857 1.0912 0.0004
0.5143 1.1474 0.0005
0.5429 1.1937 0.0007
0.5714 1.2271 0.0011
0.6000 1.1944 0.0017
0.6286 1.0878 0.0143
0.6571 1.1225 0.0340
0.6857 1.0763 0.6608
0.7143 1.1258 0.0060
0.7429 1.2199 0.0022
0.7714 1.2178 0.0009
0.8000 1.1796 0.0008
0.8286 1.1297 0.0008
0.8571 1.0707 0.0008
0.8857 1.0029 0.0007
0.9143 0.9285 0.0007
0.9429 0.8491 0.0007
0.9714 0.7695 0.0005
0.0000 1.2411 0.0001
0.0286 1.1852 0.0004
0.0571 1.2292 0.0004
0.0857 1.2681 0.0001
0.1143 1.4155 0.0001
0.1429 1.5693 0.0001
0.1714 1.7157 0.0001
0.2000 1.8467 0.0002
0.2286 1.9636 0.0002
0.2571 2.0760 0.0002
0.2857 2.1897 0.0002
0.3143 2.2970 0.0003
0.3429 2.3226 0.0005
0.3714 2.2273 0.0006
0.4000 2.1137 0.0007
0.4286 2.0011 0.0007
0.4571 1.8868 0.0007
0.4857 1.7613 0.0007
0.5143 1.6194 0.0009
0.5429 1.4669 0.0013
0.5714 1.3143 0.0018
0.6000 1.2471 0.0027
0.6286 1.1896 0.0031
0.6571 1.2058 0.0130
0.6857 1.1882 0.1190
0.7143 1.2033 0.0058
0.7429 1.2466 0.0012
0.7714 1.3644 0.0015
0.8000 1.5184 0.0013
0.8286 1.6683 0.0014
0.8571 1.8050 0.0014
0.8857 1.9257 0.0014
0.9143 2.0385 0.0013
0.9429 2.1516 0.0013
0.9714 2.2638 0.0015
0.0000 1.2465 0.0002
0.0286 1.2587 0.0002
0.0571 1.2499 0.0002
0.0857 1.3402 0.0002
0.1143 1.4897 0.0002
0.1429 1.6456 0.0002
0.1714 1.7888 0.0002
0.2000 1.9017 0.0002
0.2286 2.0042 0.0002
0.2571 2.1117 0.0002
0.2857 2.2252 0.0003
0.3143 2.3367 0.0003
0.3429 2.3674 0.0009
0.3714 2.2635 0.0011
0.4000 2.1490 0.0013
0.4286 2.0392 0.0013
0.4571 1.9358 0.0013
0.4857 1.8296 0.0013
0.5143 1.6959 0.0011
0.5429 1.5418 0.0011
0.5714 1.3880 0.0013
0.6000 1.2619 0.0019
0.6286 1.2562 0.0041
0.6571 1.2596 0.0612
0.6857 1.2602 0.0032
0.7143 1.2530 0.0015
0.7429 1.2975 0.0006
0.7714 1.4383 0.0003
0.8000 1.5941 0.0003
0.8286 1.7440 0.0004
0.8571 1.8668 0.0005
0.8857 1.9698 0.0005
0.9143 2.0750 0.0005
0.9429 2.1869 0.0006
0.9714 2.3011 0.0007
0.0000 1.2788 0.0001
0.0286 1.2822 0.0002
0.0571 1.2882 0.0002
0.0857 1.3703 0.0003
0.1143 1.5107 0.0003
0.1429 1.6666 0.0003
0.1714 1.8130 0.0003
0.2000 1.9261 0.0003
0.2286 2.0296 0.0003
0.2571 2.1384 0.0003
0.2857 2.2545 0.0003
0.3143 2.3709 0.0003
0.3429 2.4019 0.0005
0.3714 2.2940 0.0008
0.4000 2.1765 0.0010
0.4286 2.0650 0.0013
0.4571 1.9606 0.0017
0.4857 1.8535 0.0013
0.5143 1.7184 0.0006
0.5429 1.5620 0.0005
0.5714 1.4136 0.0007
0.6000 1.3034 0.0016
0.6286 1.2822 0.0041
0.6571 1.2814 0.0759
0.6857 1.2822 0.0223
0.7143 1.2833 0.0062
0.7429 1.3333 0.0028
0.7714 1.4610 0.0013
0.8000 1.6144 0.0009
0.8286 1.7679 0.0005
0.8571 1.8908 0.0004
0.8857 1.9949 0.0004
0.9143 2.1013 0.0005
0.9429 2.2152 0.0006
0.9714 2.3333 0.0010
0.0000 1.3025 0.0002
0.0286 1.2986 0.0001
0.0571 1.3023 0.0002
0.0857 1.3848 0.0002
0.1143 1.5326 0.0003
0.1429 1.6843 0.0003
0.1714 1.8331 0.0004
0.2000 1.9498 0.0002
0.2286 2.0457 0.0003
0.2571 2.1505 0.0003
0.2857 2.2644 0.0004
0.3143 2.3811 0.0007
0.3429 2.4126 0.0005
0.3714 2.3039 0.0006
0.4000 2.1875 0.0005
0.4286 2.0796 0.0004
0.4571 1.9810 0.0003
0.4857 1.8817 0.0005
0.5143 1.7339 0.0012
0.5429 1.5833 0.0023
0.5714 1.4325 0.0028
0.6000 1.3152 0.0008
0.6286 1.2977 0.0031
0.6571 1.3010 0.0254
0.6857 1.2996 0.0091
0.7143 1.2980 0.0017
0.7429 1.3429 0.0005
0.7714 1.4822 0.0005
0.8000 1.6342 0.0006
0.8286 1.7831 0.0008
0.8571 1.9187 0.0007
0.8857 2.0129 0.0006
0.9143 2.1145 0.0006
0.9429 2.2255 0.0007
0.9714 2.3434 0.0009
0.0000 1.3239 0.0003
0.0286 1.4889 0.0002
0.0571 1.6340 0.0002
0.0857 1.6822 0.0001
0.1143 1.7290 0.0001
0.1429 1.7890 0.0001
0.1714 1.8659 0.0001
0.2000 1.9906 0.0005
0.2286 2.1051 0.0003
0.2571 2.2149 0.0004
0.2857 2.3225 0.0005
0.3143 2.4159 0.0004
0.3429 2.4356 0.0005
0.3714 2.3566 0.0003
0.4000 2.2511 0.0004
0.4286 2.1418 0.0004
0.4571 2.0313 0.0006
0.4857 1.8970 0.0011
0.5143 1.8127 0.0028
0.5429 1.7472 0.0045
0.5714 1.6967 0.0113
0.6000 1.6534 0.0800
0.6286 1.5517 0.6574
0.6571 1.3572 0.6820
0.6857 1.4216 0.0060
0.7143 1.6019 0.0026
0.7429 1.6682 0.0010
0.7714 1.7121 0.0007
0.8000 1.7672 0.0005
0.8286 1.8384 0.0005
0.8571 1.9409 0.0005
0.8857 2.0682 0.0008
0.9143 2.1784 0.0011
0.9429 2.2872 0.0011
0.9714 2.3884 0.0007
0.0000 1.6239 0.0002
0.0286 1.6332 0.0002
0.0571 1.6591 0.0002
0.0857 1.6971 0.0003
0.1143 1.7444 0.0003
0.1429 1.8049 0.0003
0.1714 1.8899 0.0003
0.2000 1.9962 0.0002
0.2286 2.1389 0.0006
0.2571 2.2516 0.0005
0.2857 2.3612 0.0005
0.3143 2.4606 0.0005
0.3429 2.4690 0.0016
0.3714 2.3974 0.0003
0.4000 2.2879 0.0003
0.4286 2.1785 0.0005
0.4571 2.0423 0.0007
0.4857 1.9248 0.0011
0.5143 1.8295 0.0023
0.5429 1.7628 0.0053
0.5714 1.7117 0.0112
0.6000 1.6708 0.0233
0.6286 1.6401 0.0123
0.6571 1.6250 0.0025
0.6857 1.6281 0.0009
0.7143 1.6488 0.0006
0.7429 1.6835 0.0005
0.7714 1.7274 0.0005
0.8000 1.7829 0.0004
0.8286 1.8576 0.0003
0.8571 1.9600 0.0004
0.8857 2.0918 0.0006
0.9143 2.2152 0.0007
0.9429 2.3246 0.0009
0.9714 2.4319 0.0011
0.0000 1.6353 0.0003
0.0286 1.6455 0.0003
0.0571 1.6811 0.0002
0.0857 1.7215 0.0002
0.1143 1.7656 0.0002
0.1429 1.8244 0.0002
0.1714 1.9029 0.0002
0.2000 2.0200 0.0004
0.2286 2.1434 0.0003
0.2571 2.2719 0.0003
0.2857 2.3846 0.0003
0.3143 2.4685 0.0007
0.3429 2.4776 0.0007
0.3714 2.4180 0.0008
0.4000 2.3109 0.0008
0.4286 2.1873 0.0007
0.4571 2.0626 0.0008
0.4857 1.9373 0.0011
0.5143 1.8478 0.0011
0.5429 1.7834 0.0016
0.5714 1.7349 0.0054
0.6000 1.6958 0.0470
0.6286 1.6539 0.0310
0.6571 1.6364 0.0053
0.6857 1.6397 0.0019
0.7143 1.6659 0.0013
0.7429 1.7089 0.0005
0.7714 1.7495 0.0003
0.8000 1.8030 0.0002
0.8286 1.8737 0.0003
0.8571 1.9773 0.0005
0.8857 2.1036 0.0007
0.9143 2.2308 0.0013
0.9429 2.3487 0.0020
0.9714 2.4469 0.0017
0.0000 1.6696 0.0001
0.0286 1.6779 0.0002
0.0571 1.6990 0.0002
0.0857 1.7332 0.0002
0.1143 1.7778 0.0002
0.1429 1.8368 0.0002
0.1714 1.9181 0.0003
0.2000 2.0308 0.0003
0.2286 2.1610 0.0002
0.2571 2.2908 0.0004
0.2857 2.4089 0.0006
0.3143 2.4885 0.0003
0.3429 2.4971 0.0005
0.3714 2.4422 0.0010
0.4000 2.3325 0.0009
0.4286 2.2043 0.0008
0.4571 2.0738 0.0015
0.4857 1.9520 0.0033
0.5143 1.8609 0.0048
0.5429 1.7956 0.0069
0.5714 1.7469 0.0127
0.6000 1.7090 0.0188
0.6286 1.6837 0.0046
0.6571 1.6706 0.0010
0.6857 1.6734 0.0006
0.7143 1.6907 0.0005
0.7429 1.7206 0.0007
0.7714 1.7616 0.0006
0.8000 1.8151 0.0005
0.8286 1.8878 0.0006
0.8571 1.9898 0.0008
0.8857 2.1175 0.0011
0.9143 2.2477 0.0009
0.9429 2.3722 0.0011
0.9714 2.4707 0.0021
0.0000 1.6774 0.0003
0.0286 1.6906 0.0002
0.0571 1.7291 0.0001
0.0857 1.7849 0.0002
0.1143 1.8436 0.0002
0.1429 1.9104 0.0002
0.1714 1.9878 0.0002
0.2000 2.0798 0.0002
0.2286 2.1954 0.0003
0.2571 2.3053 0.0005
0.2857 2.4150 0.0005
0.3143 2.4999 0.0004
0.3429 2.5040 0.0007
0.3714 2.4508 0.0007
0.4000 2.3415 0.0007
0.4286 2.2335 0.0009
0.4571 2.1154 0.0009
0.4857 2.0165 0.0007
0.5143 1.9349 0.0011
0.5429 1.8648 0.0026
0.5714 1.8039 0.0089
0.6000 1.7473 0.0328
0.6286 1.7004 0.0177
0.6571 1.6789 0.0038
0.6857 1.6834 0.0016
0.7143 1.7131 0.0017
0.7429 1.7661 0.0019
0.7714 1.8233 0.0010
0.8000 1.8870 0.0007
0.8286 1.9607 0.0006
0.8571 2.0470 0.0006
0.8857 2.1545 0.0006
0.9143 2.2693 0.0007
0.9429 2.3784 0.0006
0.9714 2.4832 0.0011
0.0000 1.6951 0.0001
0.0286 1.7067 0.0001
0.0571 1.7485 0.0001
0.0857 1.8026 0.0002
0.1143 1.8602 0.0002
0.1429 1.9289 0.0002
0.1714 2.0096 0.0002
0.2000 2.1013 0.0003
0.2286 2.2028 0.0004
0.2571 2.3308 0.0003
0.2857 2.4458 0.0003
0.3143 2.5208 0.0009
0.3429 2.5284 0.0005
0.3714 2.4758 0.0010
0.4000 2.3723 0.0012
0.4286 2.2436 0.0013
0.4571 2.1339 0.0017
0.4857 2.0391 0.0030
0.5143 1.9545 0.0047
0.5429 1.8818 0.0070
0.5714 1.8209 0.0117
0.6000 1.7665 0.0215
0.6286 1.7174 0.0243
0.6571 1.6963 0.0056
0.6857 1.6999 0.0013
0.7143 1.7317 0.0004
0.7429 1.7847 0.0010
0.7714 1.8399 0.0017
0.8000 1.9047 0.0013
0.8286 1.9814 0.0009
0.8571 2.0697 0.0006
0.8857 2.1674 0.0006
0.9143 2.2874 0.0007
0.9429 2.4109 0.0009
0.9714 2.5006 0.0005
0.0000 1.7128 0.0001
0.0286 1.7241 0.0001
0.0571 1.7571 0.0001
0.0857 1.8097 0.0002
0.1143 1.8783 0.0002
0.1429 1.9536 0.0002
0.1714 2.0374 0.0002
0.2000 2.1339 0.0001
0.2286 2.2461 0.0001
0.2571 2.3682 0.0001
0.2857 2.4761 0.0002
0.3143 2.5279 0.0010
0.3429 2.5385 0.0009
0.3714 2.5014 0.0011
0.4000 2.4073 0.0004
0.4286 2.2865 0.0004
0.4571 2.1695 0.0005
0.4857 2.0680 0.0008
0.5143 1.9804 0.0010
0.5429 1.9027 0.0009
0.5714 1.8315 0.0006
0.6000 1.7724 0.0086
0.6286 1.7329 0.0186
0.6571 1.7140 0.0104
0.6857 1.7178 0.0029
0.7143 1.7439 0.0006
0.7429 1.7898 0.0017
0.7714 1.8545 0.0012
0.8000 1.9277 0.0010
0.8286 2.0083 0.0010
0.8571 2.1001 0.0010
0.8857 2.2070 0.0011
0.9143 2.3276 0.0013
0.9429 2.4438 0.0018
0.9714 2.5153 0.0026
0.0000 1.7259 0.0002
0.0286 1.7378 0.0002
0.0571 1.7769 0.0002
0.0857 1.8360 0.0002
0.1143 1.9049 0.0003
0.1429 1.9776 0.0002
0.1714 2.0611 0.0002
0.2000 2.1607 0.0002
0.2286 2.2766 0.0002
0.2571 2.3948 0.0002
0.2857 2.4910 0.0003
0.3143 2.5410 0.0004
0.3429 2.5526 0.0010
0.3714 2.5133 0.0026
0.4000 2.4305 0.0049
0.4286 2.3168 0.0059
0.4571 2.1979 0.0063
0.4857 2.0923 0.0058
0.5143 2.0040 0.0056
0.5429 1.9283 0.0068
0.5714 1.8589 0.0111
0.6000 1.7942 0.0222
0.6286 1.7481 0.0403
0.6571 1.7271 0.0101
0.6857 1.7310 0.0058
0.7143 1.7615 0.0033
0.7429 1.8141 0.0014
0.7714 1.8818 0.0010
0.8000 1.9524 0.0009
0.8286 2.0318 0.0010
0.8571 2.1255 0.0009
0.8857 2.2368 0.0009
0.9143 2.3565 0.0011
0.9429 2.4631 0.0013
0.9714 2.5305 0.0009
0.0000 1.7532 0.0003
0.0286 1.7633 0.0003
0.0571 1.8128 0.0003
0.0857 1.8884 0.0001
0.1143 1.9876 0.0001
0.1429 2.1157 0.0002
0.1714 2.2663 0.0002
0.2000 2.4353 0.0002
0.2286 2.6178 0.0002
0.2571 2.7845 0.0008
0.2857 2.6827 0.0011
0.3143 2.5909 0.0005
0.3429 2.5708 0.0007
0.3714 2.6467 0.0009
0.4000 2.7611 0.0006
0.4286 2.6805 0.0014
0.4571 2.4950 0.0017
0.4857 2.3208 0.0021
0.5143 2.1635 0.0027
0.5429 2.0276 0.0026
0.5714 1.9175 0.0010
0.6000 1.8378 0.0523
0.6286 1.7731 0.0632
0.6571 1.7542 0.0116
0.6857 1.7574 0.0055
0.7143 1.7894 0.0032
0.7429 1.8624 0.0007
0.7714 1.9507 0.0005
0.8000 2.0702 0.0004
0.8286 2.2138 0.0003
0.8571 2.3772 0.0003
0.8857 2.5559 0.0005
0.9143 2.7425 0.0010
0.9429 2.7222 0.0019
0.9714 2.6182 0.0019
0.0000 1.7647 0.0003
0.0286 1.7807 0.0003
0.0571 1.8322 0.0003
0.0857 1.9019 0.0002
0.1143 1.9975 0.0002
0.1429 2.1281 0.0002
0.1714 2.2850 0.0002
0.2000 2.4591 0.0002
0.2286 2.6443 0.0002
0.2571 2.8101 0.0003
0.2857 2.7100 0.0008
0.3143 2.6061 0.0005
0.3429 2.5932 0.0003
0.3714 2.6677 0.0007
0.4000 2.7943 0.0010
0.4286 2.7063 0.0006
0.4571 2.5201 0.0005
0.4857 2.3415 0.0005
0.5143 2.1781 0.0005
0.5429 2.0374 0.0019
0.5714 1.9301 0.0089
0.6000 1.8549 0.0401
0.6286 1.7935 0.0198
0.6571 1.7665 0.0032
0.6857 1.7718 0.0009
0.7143 1.8105 0.0003
0.7429 1.8771 0.0003
0.7714 1.9618 0.0001
0.8000 2.0810 0.0004
0.8286 2.2305 0.0008
0.8571 2.3996 0.0012
0.8857 2.5819 0.0019
0.9143 2.7646 0.0036
0.9429 2.7531 0.0011
0.9714 2.6288 0.0005
0.0000 1.7932 0.0001
0.0286 1.8055 0.0001
0.0571 1.8422 0.0002
0.0857 1.9162 0.0003
0.1143 2.0233 0.0003
0.1429 2.1585 0.0003
0.1714 2.3152 0.0003
0.2000 2.4882 0.0003
0.2286 2.6719 0.0004
0.2571 2.8234 0.0004
0.2857 2.7358 0.0006
0.3143 2.6102 0.0003
0.3429 2.5968 0.0010
0.3714 2.6906 0.0004
0.4000 2.8241 0.0013
0.4286 2.7332 0.0051
0.4571 2.5487 0.0058
0.4857 2.3713 0.0068
0.5143 2.2086 0.0088
0.5429 2.0656 0.0130
0.5714 1.9482 0.0254
0.6000 1.8630 0.0788
0.6286 1.8149 0.0129
0.6571 1.7946 0.0052
0.6857 1.7987 0.0021
0.7143 1.8269 0.0010
0.7429 1.8881 0.0007
0.7714 1.9840 0.0006
0.8000 2.1106 0.0005
0.8286 2.2609 0.0005
0.8571 2.4290 0.0005
0.8857 2.6100 0.0005
0.9143 2.7906 0.0004
0.9429 2.7814 0.0013
0.9714 2.6474 0.0012
0.0000 1.8160 0.0002
0.0286 1.8275 0.0002
0.0571 1.8681 0.0002
0.0857 1.9528 0.0003
0.1143 2.0651 0.0003
0.1429 2.2021 0.0003
0.1714 2.3593 0.0004
0.2000 2.5318 0.0004
0.2286 2.7135 0.0005
0.2571 2.8462 0.0009
0.2857 2.7576 0.0010
0.3143 2.6515 0.0010
0.3429 2.6344 0.0004
0.3714 2.7153 0.0005
0.4000 2.8455 0.0016
0.4286 2.7730 0.0022
0.4571 2.5919 0.0019
0.4857 2.4153 0.0021
0.5143 2.2525 0.0030
0.5429 2.1083 0.0058
0.5714 1.9873 0.0172
0.6000 1.8924 0.0662
0.6286 1.8369 0.0135
0.6571 1.8172 0.0033
0.6857 1.8210 0.0015
0.7143 1.8500 0.0008
0.7429 1.9212 0.0008
0.7714 2.0247 0.0006
0.8000 2.1539 0.0005
0.8286 2.3050 0.0006
0.8571 2.4729 0.0007
0.8857 2.6526 0.0012
0.9143 2.8251 0.0028
0.9429 2.8026 0.0016
0.9714 2.6785 0.0013
0.0000 1.8334 0.0003
0.0286 1.8477 0.0003
0.0571 1.9061 0.0002
0.0857 2.0807 0.0002
0.1143 2.3168 0.0003
0.1429 2.5635 0.0003
0.1714 2.8114 0.0004
0.2000 3.0451 0.0004
0.2286 2.9615 0.0010
0.2571 2.8646 0.0007
0.2857 2.7894 0.0006
0.3143 2.6792 0.0003
0.3429 2.6541 0.0003
0.3714 2.7507 0.0005
0.4000 2.8622 0.0012
0.4286 2.9178 0.0011
0.4571 3.0507 0.0153
0.4857 2.8929 0.9328
0.5143 2.6463 0.9427
0.5429 2.3984 0.9250
0.5714 2.1569 0.8570
0.6000 1.9497 0.4849
0.6286 1.8600 0.0417
0.6571 1.8349 0.0059
0.6857 1.8395 0.0015
0.7143 1.8783 0.0005
0.7429 2.0100 0.0004
0.7714 2.2360 0.0007
0.8000 2.4807 0.0012
0.8286 2.7290 0.0023
0.8571 2.9724 0.0064
0.8857 3.0062 0.0031
0.9143 2.8788 0.0014
0.9429 2.8281 0.0017
0.9714 2.7134 0.0016
0.0000 3.6567 0.0005
0.0286 3.6348 0.0010
0.0571 3.5844 0.0010
0.0857 3.5250 0.0010
0.1143 3.4489 0.0012
0.1429 3.3465 0.0013
0.1714 3.2267 0.0012
0.2000 3.0972 0.0012
0.2286 2.9986 0.0008
0.2571 2.8988 0.0011
0.2857 2.8123 0.0004
0.3143 2.6960 0.0007
0.3429 2.6696 0.0004
0.3714 2.7705 0.0003
0.4000 2.8704 0.0005
0.4286 2.9564 0.0023
0.4571 3.0778 0.1670
0.4857 3.1842 0.0005
0.5143 3.3081 0.0005
0.5429 3.4174 0.0011
0.5714 3.5024 0.0029
0.6000 3.5655 0.0062
0.6286 3.6196 0.0135
0.6571 3.6541 0.0290
0.6857 3.6467 0.2795
0.7143 3.6026 0.6046
0.7429 3.5458 0.5903
0.7714 3.4772 0.2950
0.8000 3.3832 0.0724
0.8286 3.2681 0.0216
0.8571 3.1410 0.0092
0.8857 3.0416 0.0061
0.9143 2.9209 0.0015
0.9429 2.8547 0.0047
0.9714 2.7311 0.0033
0.0000 3.6744 0.0029
0.0286 3.6516 0.0006
0.0571 3.6027 0.0006
0.0857 3.5451 0.0005
0.1143 3.4788 0.0003
0.1429 3.3855 0.0004
0.1714 3.2664 0.0005
0.2000 3.1404 0.0006
0.2286 3.0287 0.0006
0.2571 2.9040 0.0003
0.2857 2.8478 0.0008
0.3143 2.7325 0.0009
0.3429 2.7032 0.0007
0.3714 2.8078 0.0009
0.4000 2.8989 0.0006
0.4286 2.9816 0.0014
0.4571 3.1152 0.1846
0.4857 3.2242 0.0075
0.5143 3.3476 0.0035
0.5429 3.4519 0.0025
0.5714 3.5243 0.0033
0.6000 3.5842 0.0089
0.6286 3.6369 0.0193
0.6571 3.6717 0.1574
0.6857 3.6637 0.4219
0.7143 3.6204 0.6117
0.7429 3.5650 0.6442
0.7714 3.5024 0.5315
0.8000 3.4207 0.1757
0.8286 3.3077 0.0345
0.8571 3.1817 0.0096
0.8857 3.0756 0.0048
0.9143 2.9362 0.0024
0.9429 2.8823 0.0053
0.9714 2.7686 0.0017
0.0000 3.6843 0.0003
0.0286 3.6622 0.0015
0.0571 3.6244 0.0013
0.0857 3.5672 0.0012
0.1143 3.4991 0.0006
0.1429 3.4157 0.0004
0.1714 3.3016 0.0005
0.2000 3.1710 0.0006
0.2286 3.0454 0.0006
0.2571 2.9209 0.0003
0.2857 2.8611 0.0003
0.3143 2.7507 0.0007
0.3429 2.7255 0.0010
0.3714 2.8220 0.0011
0.4000 2.9242 0.0006
0.4286 2.9987 0.0032
0.4571 3.1287 0.0876
0.4857 3.2592 0.0032
0.5143 3.3807 0.0020
0.5429 3.4739 0.0041
0.5714 3.5453 0.0077
0.6000 3.6073 0.0123
0.6286 3.6517 0.0360
0.6571 3.6795 0.0506
0.6857 3.6712 0.3717
0.7143 3.6392 0.2675
0.7429 3.5881 0.3330
0.7714 3.5227 0.5208
0.8000 3.4466 0.3644
0.8286 3.3423 0.0572
0.8571 3.2157 0.0085
0.8857 3.0903 0.0087
0.9143 2.9515 0.0052
0.9429 2.8990 0.0025
0.9714 2.7844 0.0027
0.0000 3.7042 0.0002
0.0286 3.7069 0.0006
0.0571 3.6767 0.0005
0.0857 3.6110 0.0008
0.1143 3.5278 0.0013
0.1429 3.4358 0.0007
0.1714 3.3196 0.0005
0.2000 3.1894 0.0006
0.2286 3.0692 0.0008
0.2571 2.9483 0.0007
0.2857 3.0274 0.0004
0.3143 3.2274 0.0005
0.3429 3.2883 0.0019
0.3714 3.0930 0.0019
0.4000 2.9400 0.0023
0.4286 3.0230 0.0017
0.4571 3.1540 0.1702
0.4857 3.2767 0.0042
0.5143 3.3996 0.0039
0.5429 3.4996 0.0069
0.5714 3.5840 0.0095
0.6000 3.6581 0.0216
0.6286 3.7013 0.0816
0.6571 3.7063 0.3370
0.6857 3.7084 0.1454
0.7143 3.6912 0.1280
0.7429 3.6359 0.1181
0.7714 3.5559 0.2313
0.8000 3.4693 0.2268
0.8286 3.3607 0.0708
0.8571 3.2330 0.0166
0.8857 3.1165 0.0038
0.9143 2.9802 0.0010
0.9429 2.9690 0.0024
0.9714 3.1602 0.0072
0.0000 3.7369 0.0003
0.0286 3.7254 0.0004
0.0571 3.6963 0.0007
0.0857 3.6374 0.0005
0.1143 3.5524 0.0003
0.1429 3.4732 0.0013
0.1714 3.3584 0.0010
0.2000 3.2189 0.0008
0.2286 3.0921 0.0003
0.2571 2.9596 0.0004
0.2857 3.0597 0.0004
0.3143 3.2510 0.0004
0.3429 3.2973 0.0014
0.3714 3.1248 0.0007
0.4000 2.9612 0.0057
0.4286 3.0455 0.0011
0.4571 3.1748 0.1029
0.4857 3.3131 0.0022
0.5143 3.4402 0.0018
0.5429 3.5232 0.0018
0.5714 3.6111 0.0031
0.6000 3.6803 0.0065
0.6286 3.7182 0.0234
0.6571 3.7350 0.0764
0.6857 3.7308 0.1652
0.7143 3.7088 0.0390
0.7429 3.6606 0.0658
0.7714 3.5824 0.1563
0.8000 3.4972 0.6119
0.8286 3.4013 0.1744
0.8571 3.2666 0.0305
0.8857 3.1384 0.0162
0.9143 2.9998 0.0078
0.9429 2.9978 0.0076
0.9714 3.1898 0.0474
0.0000 3.7401 0.0006
0.0286 3.7345 0.0007
0.0571 3.7095 0.0006
0.0857 3.6544 0.0005
0.1143 3.5716 0.0007
0.1429 3.4770 0.0007
0.1714 3.3799 0.0007
0.2000 3.2367 0.0004
0.2286 3.1267 0.0007
0.2571 2.9951 0.0006
0.2857 3.0865 0.0006
0.3143 3.2840 0.0012
0.3429 3.3275 0.0007
0.3714 3.1526 0.0040
0.4000 2.9735 0.0004
0.4286 3.0813 0.0024
0.4571 3.1912 0.0592
0.4857 3.3324 0.0016
0.5143 3.4531 0.0031
0.5429 3.5403 0.0029
0.5714 3.6293 0.0042
0.6000 3.6948 0.0097
0.6286 3.7289 0.0444
0.6571 3.7395 0.0634
0.6857 3.7378 0.0598
0.7143 3.7207 0.0851
0.7429 3.6764 0.0679
0.7714 3.6015 0.1060
0.8000 3.5082 0.2894
0.8286 3.4232 0.3124
0.8571 3.2846 0.0312
0.8857 3.1680 0.0081
0.9143 3.0366 0.0078
0.9429 3.0229 0.0023
0.9714 3.2191 0.0120
0.0000 3.7606 0.0013
0.0286 3.7537 0.0010
0.0571 3.7399 0.0006
0.0857 3.7121 0.0008
0.1143 3.6333 0.0007
0.1429 3.5188 0.0005
0.1714 3.4048 0.0008
0.2000 3.2715 0.0007
0.2286 3.1431 0.0005
0.2571 3.0205 0.0007
0.2857 3.1307 0.0006
0.3143 3.3161 0.0014
0.3429 3.3434 0.0016
0.3714 3.1949 0.0013
0.4000 3.0199 0.0008
0.4286 3.0999 0.0162
0.4571 3.2249 0.0162
0.4857 3.3634 0.0024
0.5143 3.4794 0.0018
0.5429 3.5967 0.0034
0.5714 3.6926 0.0135
0.6000 3.7336 0.0390
0.6286 3.7494 0.0569
0.6571 3.7596 0.0760
0.6857 3.7572 0.0235
0.7143 3.7449 0.0044
0.7429 3.7250 0.0069
0.7714 3.6660 0.0128
0.8000 3.5579 0.0814
0.8286 3.4407 0.3236
0.8571 3.3183 0.0630
0.8857 3.1826 0.0173
0.9143 3.0571 0.0043
0.9429 3.0692 0.0030
0.9714 3.2589 0.0434
0.0000 3.7938 0.0002
0.0286 3.7847 0.0004
0.0571 3.7625 0.0007
0.0857 3.7395 0.0007
0.1143 3.6628 0.0004
0.1429 3.5351 0.0005
0.1714 3.4351 0.0008
0.2000 3.3022 0.0008
0.2286 3.3209 0.0013
0.2571 3.3490 0.0008
0.2857 3.3347 0.0006
0.3143 3.3299 0.0006
0.3429 3.3615 0.0036
0.3714 3.3315 0.0009
0.4000 3.3436 0.0033
0.4286 3.3542 0.1910
0.4571 3.2642 0.1416
0.4857 3.3922 0.0070
0.5143 3.4957 0.0009
0.5429 3.6219 0.0017
0.5714 3.7254 0.0097
0.6000 3.7549 0.0268
0.6286 3.7785 0.0687
0.6571 3.7921 0.1112
0.6857 3.7890 0.0902
0.7143 3.7707 0.0101
0.7429 3.7478 0.0046
0.7714 3.6991 0.0101
0.8000 3.5788 0.0314
0.8286 3.4656 0.5375
0.8571 3.3470 0.0297
0.8857 3.2673 0.0439
0.9143 3.3544 0.9124
0.9429 3.3388 0.9358
0.9714 3.3294 0.9073
0.0000 3.8124 0.0006
0.0286 3.8053 0.0010
0.0571 3.7940 0.0010
0.0857 3.7663 0.0006
0.1143 3.6986 0.0008
0.1429 3.5715 0.0006
0.1714 3.4498 0.0004
0.2000 3.4034 0.0004
0.2286 3.3735 0.0004
0.2571 3.3565 0.0012
0.2857 3.3446 0.0015
0.3143 3.3538 0.0012
0.3429 3.3953 0.0017
0.3714 3.3426 0.0037
0.4000 3.3519 0.0089
0.4286 3.3663 0.0202
0.4571 3.3922 0.0023
0.4857 3.4308 0.0013
0.5143 3.5271 0.0013
0.5429 3.6590 0.0021
0.5714 3.7530 0.0233
0.6000 3.7869 0.0291
0.6286 3.8025 0.0860
0.6571 3.8104 0.1285
0.6857 3.8078 0.1540
0.7143 3.7990 0.0816
0.7429 3.7776 0.0358
0.7714 3.7308 0.0202
0.8000 3.6159 0.0407
0.8286 3.4843 0.1755
0.8571 3.4161 0.8680
0.8857 3.3822 0.9235
0.9143 3.3613 0.9244
0.9429 3.3478 0.9427
0.9714 3.3432 0.8683
0.0000 3.8199 0.0007
0.0286 3.8382 0.0004
0.0571 3.8200 0.0006
0.0857 3.7907 0.0009
0.1143 3.7059 0.0006
0.1429 3.5848 0.0006
0.1714 3.4662 0.0005
0.2000 3.4156 0.0008
0.2286 3.3976 0.0005
0.2571 3.5737 0.0006
0.2857 3.6832 0.0011
0.3143 3.5083 0.0014
0.3429 3.4441 0.0006
0.3714 3.6335 0.0066
0.4000 3.6455 0.8192
0.4286 3.4311 0.7116
0.4571 3.4053 0.0201
0.4857 3.4441 0.0074
0.5143 3.5414 0.0066
0.5429 3.6680 0.0098
0.5714 3.7639 0.0042
0.6000 3.8126 0.0312
0.6286 3.8340 0.0657
0.6571 3.8255 0.4493
0.6857 3.8353 0.0186
0.7143 3.8274 0.0123
0.7429 3.8049 0.0166
0.7714 3.7394 0.0061
0.8000 3.6275 0.0119
0.8286 3.4998 0.2089
0.8571 3.4282 0.8520
0.8857 3.3977 0.8897
0.9143 3.4993 0.0510
0.9429 3.6982 0.0018
0.9714 3.5728 0.0016
0.0000 3.8540 0.0003
0.0286 3.8629 0.0005
0.0571 3.8850 0.0007
0.0857 3.8070 0.0009
0.1143 3.7546 0.0011
0.1429 3.7484 0.0012
0.1714 3.7504 0.0013
0.2000 3.7563 0.0014
0.2286 3.7631 0.0014
0.2571 3.7621 0.0013
0.2857 3.7250 0.0015
0.3143 3.5479 0.0013
0.3429 3.4866 0.0014
0.3714 3.6699 0.0029
0.4000 3.7555 0.0613
0.4286 3.7645 0.0109
0.4571 3.7587 0.0086
0.4857 3.7520 0.0091
0.5143 3.7486 0.0106
0.5429 3.7509 0.0130
0.5714 3.7917 0.0013
0.6000 3.8608 0.0475
0.6286 3.8782 0.6766
0.6571 3.8535 0.1390
0.6857 3.8543 0.0696
0.7143 3.8907 0.0360
0.7429 3.8316 0.0061
0.7714 3.7651 0.0051
0.8000 3.7493 0.0028
0.8286 3.7493 0.0017
0.8571 3.7541 0.0011
0.8857 3.7610 0.0010
0.9143 3.7645 0.0019
0.9429 3.7499 0.0058
0.9714 3.6099 0.0091
0.0000 3.8849 0.0007
0.0286 3.8918 0.0007
0.0571 3.9045 0.0006
0.0857 3.8300 0.0006
0.1143 3.7828 0.0005
0.1429 3.7693 0.0005
0.1714 3.7667 0.0006
0.2000 3.7699 0.0008
0.2286 3.7772 0.0012
0.2571 3.7861 0.0016
0.2857 3.7363 0.0023
0.3143 3.5677 0.0034
0.3429 3.5078 0.0018
0.3714 3.6860 0.0093
0.4000 3.7857 0.0054
0.4286 3.7803 0.0036
0.4571 3.7720 0.0034
0.4857 3.7672 0.0038
0.5143 3.7676 0.0044
0.5429 3.7766 0.0056
0.5714 3.8000 0.0243
0.6000 3.8914 0.1082
0.6286 3.8982 0.4557
0.6571 3.8853 0.2061
0.6857 3.8876 0.0797
0.7143 3.9039 0.0125
0.7429 3.8635 0.0076
0.7714 3.7905 0.0065
0.8000 3.7723 0.0053
0.8286 3.7668 0.0050
0.8571 3.7685 0.0045
0.8857 3.7744 0.0041
0.9143 3.7834 0.0032
0.9429 3.7698 0.0034
0.9714 3.6287 0.0018
0.0000 4.0195 0.0003
0.0286 3.9848 0.0007
0.0571 3.9360 0.0007
0.0857 3.8611 0.0012
0.1143 3.8076 0.0015
0.1429 3.7949 0.0015
0.1714 3.7925 0.0014
0.2000 3.7953 0.0014
0.2286 3.8012 0.0014
0.2571 3.8028 0.0011
0.2857 3.7599 0.0021
0.3143 3.6044 0.0020
0.3429 3.5458 0.0010
0.3714 3.7169 0.0055
0.4000 3.7958 0.0023
0.4286 3.8031 0.0019
0.4571 3.7971 0.0022
0.4857 3.7929 0.0033
0.5143 3.7934 0.0053
0.5429 3.8013 0.0084
0.5714 3.8377 0.0105
0.6000 3.9114 0.0780
0.6286 3.9641 0.0728
0.6571 4.0158 0.0077
0.6857 4.0032 0.0041
0.7143 3.9463 0.0131
0.7429 3.8861 0.0113
0.7714 3.8190 0.0230
0.8000 3.7976 0.0192
0.8286 3.7926 0.0143
0.8571 3.7940 0.0117
0.8857 3.7991 0.0101
0.9143 3.8041 0.0086
0.9429 3.7785 0.0019
0.9714 3.6629 0.0064
0.0000 4.0238 0.0005
0.0286 4.0006 0.0003
0.0571 3.9417 0.0005
0.0857 3.8793 0.0002
0.1143 3.8305 0.0003
0.1429 3.8135 0.0003
0.1714 3.8092 0.0003
0.2000 3.8118 0.0004
0.2286 3.8186 0.0006
0.2571 3.8220 0.0019
0.2857 3.7810 0.0044
0.3143 3.7412 0.0041
0.3429 3.7324 0.0081
0.3714 3.7702 0.0442
0.4000 3.8146 0.0201
0.4286 3.8211 0.0079
0.4571 3.8138 0.0036
0.4857 3.8094 0.0020
0.5143 3.8111 0.0013
0.5429 3.8228 0.0012
0.5714 3.8577 0.0033
0.6000 3.9259 0.0931
0.6286 3.9834 0.0236
0.6571 4.0200 0.0182
0.6857 4.0126 0.0065
0.7143 3.9619 0.0069
0.7429 3.9038 0.0067
0.7714 3.8416 0.0055
0.8000 3.8175 0.0051
0.8286 3.8098 0.0042
0.8571 3.8105 0.0032
0.8857 3.8161 0.0024
0.9143 3.8227 0.0017
0.9429 3.7956 0.0011
0.9714 3.7545 0.0030
0.0000 4.0414 0.0001
0.0286 4.0196 0.0005
0.0571 3.9580 0.0009
0.0857 3.9930 0.0009
0.1143 4.0292 0.0013
0.1429 4.0512 0.0012
0.1714 4.0541 0.0012
0.2000 4.0325 0.0024
0.2286 3.9834 0.0048
0.2571 3.8960 0.0028
0.2857 3.8083 0.0013
0.3143 3.7638 0.0021
0.3429 3.7534 0.0025
0.3714 3.8018 0.0302
0.4000 3.8545 0.0071
0.4286 3.9598 0.0062
0.4571 4.0195 0.0092
0.4857 4.0497 0.0221
0.5143 4.0546 0.0791
0.5429 4.0383 0.2208
0.5714 4.0059 0.4499
0.6000 3.9662 0.6621
0.6286 3.9991 0.0094
0.6571 4.0401 0.0159
0.6857 4.0339 0.0065
0.7143 3.9760 0.0021
0.7429 3.9806 0.0085
0.7714 4.0182 0.0068
0.8000 4.0456 0.0053
0.8286 4.0557 0.0051
0.8571 4.0425 0.0039
0.8857 4.0029 0.0020
0.9143 3.9313 0.0016
0.9429 3.8172 0.0044
0.9714 3.7806 0.0075
0.0000 4.0561 0.0011
0.0286 4.0374 0.0006
0.0571 3.9896 0.0010
0.0857 4.0089 0.0017
0.1143 4.0593 0.0022
0.1429 4.0882 0.0027
0.1714 4.0810 0.0027
0.2000 4.0461 0.0027
0.2286 4.0007 0.0015
0.2571 3.9146 0.0024
0.2857 3.8241 0.0027
0.3143 3.7746 0.0047
0.3429 3.7621 0.0070
0.3714 3.8126 0.0281
0.4000 3.8750 0.0011
0.4286 3.9805 0.0011
0.4571 4.0319 0.0074
0.4857 4.0713 0.0351
0.5143 4.0908 0.1237
0.5429 4.0710 0.2631
0.5714 4.0280 0.5702
0.6000 3.9813 0.4212
0.6286 4.0240 0.0718
0.6571 4.0540 0.0243
0.6857 4.0472 0.0155
0.7143 4.0068 0.0098
0.7429 3.9900 0.0139
0.7714 4.0450 0.0100
0.8000 4.0808 0.0088
0.8286 4.0879 0.0025
0.8571 4.0595 0.0041
0.8857 4.0167 0.0055
0.9143 3.9521 0.0030
0.9429 3.8438 0.0053
0.9714 3.7936 0.0012
0.0000 4.0829 0.0010
0.0286 4.0670 0.0011
0.0571 4.0662 0.0007
0.0857 4.0801 0.0006
0.1143 4.1025 0.0009
0.1429 4.1093 0.0021
0.1714 4.0965 0.0017
0.2000 4.0650 0.0014
0.2286 4.0210 0.0019
0.2571 3.9437 0.0024
0.2857 3.8462 0.0029
0.3143 3.7979 0.0021
0.3429 3.7876 0.0019
0.3714 3.8298 0.0563
0.4000 3.9087 0.0195
0.4286 4.0019 0.0097
0.4571 4.0522 0.0154
0.4857 4.0867 0.0197
0.5143 4.1106 0.0370
0.5429 4.1068 0.1311
0.5714 4.0874 0.1942
0.6000 4.0695 0.0758
0.6286 4.0645 0.0237
0.6571 4.0785 0.0128
0.6857 4.0718 0.0284
0.7143 4.0645 0.0251
0.7429 4.0741 0.0174
0.7714 4.0954 0.0092
0.8000 4.1086 0.0042
0.8286 4.1056 0.0054
0.8571 4.0764 0.0020
0.8857 4.0373 0.0014
0.9143 3.9786 0.0028
0.9429 3.8797 0.0044
0.9714 3.8130 0.0041
0.0000 4.0981 0.0005
0.0286 4.1017 0.0011
0.0571 4.1029 0.0007
0.0857 4.1167 0.0005
0.1143 4.1304 0.0008
0.1429 4.1242 0.0010
0.1714 4.1213 0.0021
0.2000 4.0862 0.0017
0.2286 4.0387 0.0022
0.2571 3.9561 0.0052
0.2857 3.8689 0.0030
0.3143 3.8463 0.0047
0.3429 3.8478 0.0060
0.3714 3.8505 0.0434
0.4000 3.9254 0.0013
0.4286 4.0158 0.0048
0.4571 4.0725 0.0030
0.4857 4.1106 0.0015
0.5143 4.1182 0.0347
0.5429 4.1319 0.0693
0.5714 4.1215 0.0853
0.6000 4.1069 0.1058
0.6286 4.1002 0.0607
0.6571 4.1009 0.0200
0.6857 4.1039 0.0053
0.7143 4.1006 0.0041
0.7429 4.1117 0.0073
0.7714 4.1262 0.0097
0.8000 4.1295 0.0069
0.8286 4.1204 0.0059
0.8571 4.0989 0.0010
0.8857 4.0567 0.0010
0.9143 3.9857 0.0013
0.9429 3.8898 0.0025
0.9714 3.8461 0.0059
0.0000 4.1093 0.0014
0.0286 4.1074 0.0008
0.0571 4.1153 0.0012
0.0857 4.1321 0.0013
0.1143 4.1564 0.0006
0.1429 4.1491 0.0013
0.1714 4.1288 0.0023
0.2000 4.1484 0.0045
0.2286 4.0855 0.0025
0.2571 3.9755 0.0018
0.2857 3.8777 0.0018
0.3143 3.8707 0.0043
0.3429 3.8685 0.0066
0.3714 3.8728 0.1689
0.4000 3.9380 0.0055
0.4286 4.0432 0.0046
0.4571 4.1447 0.0351
0.4857 4.1365 0.0594
0.5143 4.1414 0.0028
0.5429 4.1588 0.0684
0.5714 4.1412 0.2433
0.6000 4.1194 0.0893
0.6286 4.1097 0.0342
0.6571 4.1078 0.0146
0.6857 4.1055 0.0031
0.7143 4.1122 0.0072
0.7429 4.1248 0.0048
0.7714 4.1501 0.0032
0.8000 4.1552 0.0021
0.8286 4.1324 0.0016
0.8571 4.1438 0.0055
0.8857 4.1232 0.0025
0.9143 4.0055 0.0034
0.9429 3.9032 0.0010
0.9714 3.8739 0.0017
0.0000 4.1247 0.0009
0.0286 4.1363 0.0008
0.0571 4.1460 0.0005
0.0857 4.1544 0.0004
0.1143 4.1640 0.0014
0.1429 4.1794 0.0014
0.1714 4.1895 0.0023
0.2000 4.1809 0.0025
0.2286 4.1044 0.0020
0.2571 3.9848 0.0033
0.2857 3.8985 0.0032
0.3143 3.8901 0.0009
0.3429 3.8958 0.0171
0.3714 3.8854 0.0188
0.4000 3.9503 0.0033
0.4286 4.0626 0.0100
0.4571 4.1702 0.0346
0.4857 4.1879 0.0187
0.5143 4.1855 0.0488
0.5429 4.1654 0.1294
0.5714 4.1578 0.0972
0.6000 4.1487 0.0204
0.6286 4.1401 0.0080
0.6571 4.1269 0.0100
0.6857 4.1315 0.0139
0.7143 4.1432 0.0096
0.7429 4.1515 0.0061
0.7714 4.1621 0.0046
0.8000 4.1720 0.0030
0.8286 4.1891 0.0044
0.8571 4.1853 0.0055
0.8857 4.1435 0.0021
0.9143 4.0236 0.0011
0.9429 3.9209 0.0012
0.9714 3.8840 0.0028
0.0000 4.1602 0.0012
0.0286 4.1544 0.0012
0.0571 4.1647 0.0014
0.0857 4.1698 0.0015
0.1143 4.1760 0.0006
0.1429 4.2052 0.0011
0.1714 4.2132 0.0010
0.2000 4.2203 0.0012
0.2286 4.1428 0.0030
0.2571 4.0062 0.0017
0.2857 3.9250 0.0027
0.3143 3.9107 0.0032
0.3429 3.9108 0.0047
0.3714 3.9175 0.0412
0.4000 3.9680 0.0134
0.4286 4.1005 0.0026
0.4571 4.2038 0.0048
0.4857 4.2186 0.0401
0.5143 4.2071 0.0935
0.5429 4.1876 0.3402
0.5714 4.1697 0.0111
0.6000 4.1676 0.0017
0.6286 4.1570 0.0029
0.6571 4.1579 0.0096
0.6857 4.1548 0.0082
0.7143 4.1609 0.0039
0.7429 4.1693 0.0027
0.7714 4.1697 0.0011
0.8000 4.1987 0.0041
0.8286 4.2090 0.0025
0.8571 4.2228 0.0011
0.8857 4.1801 0.0007
0.9143 4.0545 0.0016
0.9429 3.9400 0.0061
0.9714 3.9118 0.0045
0.0000 4.1737 0.0020
0.0286 4.1880 0.0022
0.0571 4.2042 0.0023
0.0857 4.2111 0.0024
0.1143 4.2136 0.0022
0.1429 4.2230 0.0008
0.1714 4.2445 0.0005
0.2000 4.2535 0.0007
0.2286 4.1579 0.0006
0.2571 4.0314 0.0010
0.2857 3.9404 0.0021
0.3143 3.9386 0.0055
0.3429 3.9327 0.0079
0.3714 3.9408 0.2286
0.4000 4.0005 0.0089
0.4286 4.1093 0.0045
0.4571 4.2343 0.0143
0.4857 4.2503 0.0576
0.5143 4.2304 0.1828
0.5429 4.2153 0.1701
0.5714 4.2119 0.0792
0.6000 4.2076 0.0441
0.6286 4.1942 0.0280
0.6571 4.1763 0.0122
0.6857 4.1818 0.0027
0.7143 4.1997 0.0019
0.7429 4.2099 0.0016
0.7714 4.2125 0.0018
0.8000 4.2179 0.0017
0.8286 4.2378 0.0022
0.8571 4.2540 0.0025
0.8857 4.1976 0.0028
0.9143 4.0646 0.0035
0.9429 3.9674 0.0037
0.9714 3.9449 0.0043
0.0000 4.1873 0.0019
0.0286 4.2004 0.0015
0.0571 4.2164 0.0013
0.0857 4.2259 0.0012
0.1143 4.2366 0.0013
0.1429 4.2727 0.0014
0.1714 4.3365 0.0012
0.2000 4.2797 0.0011
0.2286 4.2011 0.0030
0.2571 4.0657 0.0010
0.2857 3.9786 0.0018
0.3143 3.9546 0.0006
0.3429 3.9500 0.0047
0.3714 3.9673 0.0728
0.4000 4.0255 0.0044
0.4286 4.1633 0.0124
0.4571 4.2461 0.0106
0.4857 4.3457 0.4854
0.5143 4.2935 0.6643
0.5429 4.2440 0.3042
0.5714 4.2286 0.0798
0.6000 4.2201 0.0227
0.6286 4.2064 0.0079
0.6571 4.1893 0.0063
0.6857 4.1943 0.0044
0.7143 4.2118 0.0015
0.7429 4.2232 0.0008
0.7714 4.2318 0.0012
0.8000 4.2559 0.0025
0.8286 4.3160 0.0027
0.8571 4.3217 0.0020
0.8857 4.2193 0.0070
0.9143 4.1146 0.0009
0.9429 3.9976 0.0036
0.9714 3.9616 0.0021
0.0000 4.2367 0.0010
0.0286 4.2466 0.0010
0.0571 4.2603 0.0010
0.0857 4.2656 0.0010
0.1143 4.2681 0.0010
0.1429 4.2956 0.0010
0.1714 4.3602 0.0012
0.2000 4.2969 0.0015
0.2286 4.2222 0.0029
0.2571 4.0876 0.0019
0.2857 3.9950 0.0012
0.3143 3.9854 0.0014
0.3429 3.9837 0.0273
0.3714 3.9822 0.0584
0.4000 4.0474 0.0013
0.4286 4.1770 0.0133
0.4571 4.2709 0.0190
0.4857 4.3663 0.3039
0.5143 4.3150 0.5927
0.5429 4.2723 0.1906
0.5714 4.2661 0.0348
0.6000 4.2631 0.0109
0.6286 4.2518 0.0051
0.6571 4.2381 0.0024
0.6857 4.2417 0.0019
0.7143 4.2565 0.0024
0.7429 4.2648 0.0024
0.7714 4.2665 0.0022
0.8000 4.2810 0.0017
0.8286 4.3376 0.0017
0.8571 4.3351 0.0015
0.8857 4.2550 0.0007
0.9143 4.1299 0.0024
0.9429 4.0157 0.0019
0.9714 3.9840 0.0032
0.0000 5.0276 0.0020
0.0286 5.0063 0.0022
0.0571 4.9503 0.0026
0.0857 4.8636 0.0026
0.1143 4.7414 0.0019
0.1429 4.5942 0.0012
0.1714 4.4412 0.0006
0.2000 4.3411 0.0018
0.2286 4.2275 0.0042
0.2571 4.1129 0.0009
0.2857 4.0367 0.0010
0.3143 4.0023 0.0069
0.3429 3.9924 0.0035
0.3714 4.0295 0.1102
0.4000 4.0760 0.0140
0.4286 4.2077 0.0162
0.4571 4.2971 0.0112
0.4857 4.4097 0.4690
0.5143 4.5428 0.0125
0.5429 4.6943 0.0047
0.5714 4.8267 0.0038
0.6000 4.9253 0.0039
0.6286 4.9909 0.0037
0.6571 5.0251 0.0034
0.6857 5.0178 0.0031
0.7143 4.9722 0.0026
0.7429 4.8966 0.0020
0.7714 4.7857 0.0013
0.8000 4.6451 0.0011
0.8286 4.4909 0.0012
0.8571 4.3895 0.0009
0.8857 4.2634 0.0012
0.9143 4.1635 0.0017
0.9429 4.0523 0.0020
0.9714 4.0168 0.0013
0.0000 5.0774 0.0024
0.0286 5.0558 0.0024
0.0571 4.9922 0.0023
0.0857 4.8965 0.0023
0.1143 4.7775 0.0030
0.1429 4.6338 0.0033
0.1714 4.4799 0.0033
0.2000 4.3793 0.0041
0.2286 4.2744 0.0014
0.2571 4.1596 0.0030
0.2857 4.0617 0.0026
0.3143 4.1067 0.0028
0.3429 4.1715 0.7812
0.3714 4.0393 0.0511
0.4000 4.1235 0.0078
0.4286 4.2276 0.0050
0.4571 4.3336 0.0381
0.4857 4.4354 0.1673
0.5143 4.5825 0.0153
0.5429 4.7320 0.0035
0.5714 4.8595 0.0011
0.6000 4.9633 0.0006
0.6286 5.0390 0.0007
0.6571 5.0750 0.0007
0.6857 5.0678 0.0006
0.7143 5.0176 0.0006
0.7429 4.9313 0.0009
0.7714 4.8199 0.0012
0.8000 4.6840 0.0012
0.8286 4.5305 0.0012
0.8571 4.4135 0.0016
0.8857 4.2939 0.0018
0.9143 4.1940 0.0047
0.9429 4.0903 0.0032
0.9714 4.0529 0.0044
0.0000 5.1124 0.0072
0.0286 5.0858 0.0065
0.0571 5.0270 0.0059
0.0857 4.9459 0.0054
0.1143 4.8230 0.0033
0.1429 4.6693 0.0025
0.1714 4.5055 0.0023
0.2000 4.4163 0.0015
0.2286 4.2835 0.0008
0.2571 4.2588 0.0077
0.2857 4.2888 0.0246
0.3143 4.3060 0.1820
0.3429 4.2886 0.0508
0.3714 4.2983 0.0212
0.4000 4.2679 0.0173
0.4286 4.2600 0.0111
0.4571 4.3730 0.0697
0.4857 4.4534 0.0738
0.5143 4.6152 0.0035
0.5429 4.7739 0.0023
0.5714 4.9102 0.0035
0.6000 5.0031 0.0031
0.6286 5.0686 0.0022
0.6571 5.1091 0.0021
0.6857 5.0997 0.0022
0.7143 5.0489 0.0023
0.7429 4.9765 0.0021
0.7714 4.8688 0.0014
0.8000 4.7225 0.0010
0.8286 4.5603 0.0011
0.8571 4.4279 0.0017
0.8857 4.3289 0.0028
0.9143 4.2538 0.0048
0.9429 4.2783 0.0050
0.9714 4.3054 0.0049
0.0000 5.1781 0.0016
0.0286 5.1461 0.0011
0.0571 5.0754 0.0009
0.0857 4.9826 0.0012
0.1143 4.8769 0.0049
0.1429 4.7235 0.0042
0.1714 4.5579 0.0035
0.2000 4.4323 0.0022
0.2286 4.3116 0.0018
0.2571 4.3080 0.0034
0.2857 4.3317 0.0058
0.3143 4.3633 0.0176
0.3429 4.3693 0.0358
0.3714 4.3425 0.0092
0.4000 4.3137 0.0049
0.4286 4.3039 0.0162
0.4571 4.3997 0.1061
0.4857 4.5036 0.0294
0.5143 4.6690 0.0026
0.5429 4.8287 0.0009
0.5714 4.9500 0.0024
0.6000 5.0466 0.0012
0.6286 5.1253 0.0015
0.6571 5.1744 0.0022
0.6857 5.1632 0.0024
0.7143 5.1016 0.0019
0.7429 5.0154 0.0016
0.7714 4.9167 0.0013
0.8000 4.7770 0.0011
0.8286 4.6135 0.0012
0.8571 4.4558 0.0018
0.8857 4.3516 0.0010
0.9143 4.3051 0.0017
0.9429 4.3219 0.0025
0.9714 4.3533 0.0024
0.0000 5.1915 0.0029
0.0286 5.1693 0.0027
0.0571 5.1048 0.0030
0.0857 5.0092 0.0029
0.1143 4.8922 0.0016
0.1429 4.7731 0.0030
0.1714 4.6103 0.0030
0.2000 4.4564 0.0032
0.2286 4.3564 0.0017
0.2571 4.3416 0.0045
0.2857 4.3749 0.0050
0.3143 4.4034 0.0078
0.3429 4.3873 0.0045
0.3714 4.3866 0.0142
0.4000 4.3512 0.0176
0.4286 4.3452 0.0104
0.4571 4.4094 0.0239
0.4857 4.5527 0.0166
0.5143 4.7223 0.0034
0.5429 4.8565 0.0087
0.5714 4.9727 0.0019
0.6000 5.0751 0.0021
0.6286 5.1529 0.0011
0.6571 5.1882 0.0007
0.6857 5.1806 0.0009
0.7143 5.1311 0.0005
0.7429 5.0430 0.0007
0.7714 4.9315 0.0011
0.8000 4.8179 0.0005
0.8286 4.6673 0.0008
0.8571 4.4976 0.0013
0.8857 4.3715 0.0017
0.9143 4.3374 0.0018
0.9429 4.3628 0.0018
0.9714 4.3967 0.0014
0.0000 5.2172 0.0037
0.0286 5.1848 0.0033
0.0571 5.1238 0.0018
0.0857 5.0226 0.0031
0.1143 4.9172 0.0028
0.1429 4.8051 0.0020
0.1714 4.6478 0.0026
0.2000 4.4878 0.0005
0.2286 4.3872 0.0032
0.2571 4.3787 0.0013
0.2857 4.4098 0.0015
0.3143 4.4241 0.4606
0.3429 4.4060 0.0121
0.3714 4.4199 0.0088
0.4000 4.3885 0.0098
0.4286 4.3681 0.0163
0.4571 4.4703 0.2017
0.4857 4.5899 0.0154
0.5143 4.7572 0.0071
0.5429 4.8836 0.0021
0.5714 4.9846 0.0032
0.6000 5.0947 0.0012
0.6286 5.1675 0.0015
0.6571 5.2105 0.0009
0.6857 5.1991 0.0015
0.7143 5.1474 0.0016
0.7429 5.0605 0.0009
0.7714 4.9499 0.0011
0.8000 4.8468 0.0016
0.8286 4.7040 0.0015
0.8571 4.5326 0.0016
0.8857 4.4278 0.0017
0.9143 4.3707 0.0021
0.9429 4.3991 0.0021
0.9714 4.4286 0.0021
0.0000 5.2254 0.0035
0.0286 5.2049 0.0040
0.0571 5.1370 0.0054
0.0857 5.0587 0.0037
0.1143 4.9488 0.0032
0.1429 4.8138 0.0039
0.1714 4.6752 0.0022
0.2000 4.5311 0.0022
0.2286 4.5585 0.0025
0.2571 4.5612 0.0069
0.2857 4.5193 0.0311
0.3143 4.4379 0.0820
0.3429 4.4425 0.0117
0.3714 4.5017 0.0193
0.4000 4.5483 0.0789
0.4286 4.5709 0.4244
0.4571 4.5148 0.6414
0.4857 4.6237 0.0691
0.5143 4.7699 0.0220
0.5429 4.9039 0.0059
0.5714 5.0278 0.0018
0.6000 5.1116 0.0010
0.6286 5.1856 0.0006
0.6571 5.2267 0.0010
0.6857 5.2193 0.0012
0.7143 5.1624 0.0015
0.7429 5.0860 0.0023
0.7714 4.9909 0.0026
0.8000 4.8583 0.0024
0.8286 4.7243 0.0008
0.8571 4.5735 0.0014
0.8857 4.5358 0.0011
0.9143 4.5702 0.0022
0.9429 4.5340 0.0026
0.9714 4.4713 0.0041
0.0000 5.2412 0.0042
0.0286 5.2330 0.0094
0.0571 5.1679 0.0065
0.0857 5.0784 0.0053
0.1143 4.9803 0.0032
0.1429 4.8631 0.0012
0.1714 4.7143 0.0022
0.2000 4.5673 0.0033
0.2286 4.5779 0.0052
0.2571 4.5814 0.0092
0.2857 4.5278 0.0270
0.3143 4.4931 0.0025
0.3429 4.4897 0.0101
0.3714 4.5114 0.0137
0.4000 4.5641 0.0319
0.4286 4.5929 0.5176
0.4571 4.5523 0.5640
0.4857 4.6612 0.0285
0.5143 4.8175 0.0016
0.5429 4.9428 0.0046
0.5714 5.0459 0.0019
0.6000 5.1403 0.0012
0.6286 5.2147 0.0009
0.6571 5.2435 0.0011
0.6857 5.2461 0.0011
0.7143 5.1929 0.0017
0.7429 5.1104 0.0020
0.7714 5.0139 0.0017
0.8000 4.9033 0.0017
0.8286 4.7668 0.0021
0.8571 4.6098 0.0012
0.8857 4.5614 0.0026
0.9143 4.5943 0.0038
0.9429 4.5460 0.0042
0.9714 4.5000 0.0018
0.0000 5.2611 0.0019
0.0286 5.2468 0.0038
0.0571 5.1942 0.0044
0.0857 5.1048 0.0035
0.1143 5.0041 0.0039
0.1429 4.8870 0.0010
0.1714 4.7931 0.0022
0.2000 4.7220 0.0033
0.2286 4.6581 0.0032
0.2571 4.6224 0.0145
0.2857 4.5677 0.0936
0.3143 4.5023 0.0689
0.3429 4.4929 0.0144
0.3714 4.5437 0.0138
0.4000 4.6073 0.0714
0.4286 4.6416 0.1353
0.4571 4.6997 0.0249
0.4857 4.7681 0.0168
0.5143 4.8499 0.0127
0.5429 4.9709 0.0017
0.5714 5.0713 0.0030
0.6000 5.1674 0.0028
0.6286 5.2346 0.0025
0.6571 5.2599 0.0017
0.6857 5.2529 0.0011
0.7143 5.2168 0.0010
0.7429 5.1373 0.0009
0.7714 5.0374 0.0012
0.8000 4.9308 0.0017
0.8286 4.8198 0.0016
0.8571 4.7444 0.0022
0.8857 4.6780 0.0028
0.9143 4.6320 0.0011
0.9429 4.5887 0.0010
0.9714 4.5193 0.0024
0.0000 5.2672 0.0079
0.0286 5.2695 0.0049
0.0571 5.2332 0.0020
0.0857 5.1429 0.0017
0.1143 5.0298 0.0023
0.1429 4.9226 0.0076
0.1714 4.8277 0.0056
0.2000 4.7464 0.0043
0.2286 4.6996 0.0092
0.2571 4.6782 0.0274
0.2857 4.6217 0.0939
0.3143 4.5526 0.1019
0.3429 4.5402 0.0228
0.3714 4.5984 0.0229
0.4000 4.6611 0.0491
0.4286 4.6976 0.3275
0.4571 4.7255 0.0884
0.4857 4.7973 0.0149
0.5143 4.8927 0.0034
0.5429 4.9878 0.0047
0.5714 5.1076 0.0025
0.6000 5.2065 0.0019
0.6286 5.2707 0.0025
0.6571 5.2631 0.0020
0.6857 5.2624 0.0010
0.7143 5.2558 0.0012
0.7429 5.1762 0.0007
0.7714 5.0701 0.0009
0.8000 4.9522 0.0012
0.8286 4.8604 0.0026
0.8571 4.7701 0.0030
0.8857 4.7090 0.0022
0.9143 4.6910 0.0013
0.9429 4.6421 0.0014
0.9714 4.5729 0.0015
0.0000 5.2923 0.0080
0.0286 5.2954 0.0013
0.0571 5.2578 0.0020
0.0857 5.1663 0.0024
0.1143 5.0553 0.0027
0.1429 4.9570 0.0032
0.1714 4.8585 0.0052
0.2000 4.7867 0.0081
0.2286 4.7248 0.0102
0.2571 4.7411 0.0077
0.2857 4.7040 0.6675
0.3143 4.6006 0.0591
0.3429 4.5901 0.0061
0.3714 4.6526 0.0044
0.4000 4.7662 0.7521
0.4286 4.7136 0.3113
0.4571 4.7645 0.0309
0.4857 4.8331 0.0115
0.5143 4.9186 0.0046
0.5429 5.0229 0.0018
0.5714 5.1292 0.0011
0.6000 5.2316 0.0008
0.6286 5.2888 0.0007
0.6571 5.2951 0.0023
0.6857 5.2982 0.0022
0.7143 5.2784 0.0016
0.7429 5.2008 0.0015
0.7714 5.0912 0.0015
0.8000 4.9927 0.0020
0.8286 4.8861 0.0017
0.8571 4.8093 0.0017
0.8857 4.7433 0.0019
0.9143 4.7228 0.0025
0.9429 4.7592 0.0019
0.9714 4.6194 0.0017
0.0000 5.3263 0.0011
0.0286 5.3122 0.0015
0.0571 5.2853 0.0063
0.0857 5.2078 0.0057
0.1143 5.0900 0.0048
0.1429 4.9683 0.0030
0.1714 4.8916 0.0033
0.2000 4.8223 0.0042
0.2286 4.7579 0.0054
0.2571 4.7478 0.0220
0.2857 4.8384 0.0119
0.3143 4.9539 0.0421
0.3429 4.9897 0.8424
0.3714 4.8764 0.9152
0.4000 4.7728 0.7585
0.4286 4.7406 0.1060
0.4571 4.7999 0.0106
0.4857 4.8676 0.0035
0.5143 4.9415 0.0017
0.5429 5.0464 0.0010
0.5714 5.1716 0.0010
0.6000 5.2663 0.0011
0.6286 5.3029 0.0016
0.6571 5.3247 0.0014
0.6857 5.3197 0.0010
0.7143 5.2955 0.0009
0.7429 5.2399 0.0016
0.7714 5.1321 0.0015
0.8000 5.0029 0.0013
0.8286 4.9162 0.0017
0.8571 4.8445 0.0018
0.8857 4.7782 0.0019
0.9143 4.7326 0.0021
0.9429 4.8023 0.0023
0.9714 4.9152 0.0022
0.0000 5.3399 0.0074
0.0286 5.3324 0.0062
0.0571 5.3484 0.0033
0.0857 5.3933 0.0071
0.1143 5.4396 0.0129
0.1429 5.4808 0.0275
0.1714 5.4868 0.4336
0.2000 5.3417 0.8796
0.2286 5.1388 0.9264
0.2571 4.9258 0.8865
0.2857 4.8619 0.0459
0.3143 4.9719 0.0523
0.3429 5.0057 0.8028
0.3714 4.8973 0.8996
0.4000 4.8608 0.1389
0.4286 5.0678 0.0082
0.4571 5.2767 0.0031
0.4857 5.4529 0.0025
0.5143 5.4923 0.0028
0.5429 5.4541 0.0029
0.5714 5.4091 0.0028
0.6000 5.3621 0.0023
0.6286 5.3330 0.0011
0.6571 5.3384 0.0005
0.6857 5.3350 0.0009
0.7143 5.3381 0.0014
0.7429 5.3776 0.0006
0.7714 5.4247 0.0006
0.8000 5.4679 0.0008
0.8286 5.4975 0.0011
0.8571 5.4019 0.0008
0.8857 5.2087 0.0008
0.9143 4.9964 0.0008
0.9429 4.8358 0.0008
0.9714 4.9346 0.0015
0.0000 5.3686 0.0040
0.0286 5.3746 0.0102
0.0571 5.3861 0.0105
0.0857 5.4147 0.0117
0.1143 5.4527 0.0192
0.1429 5.4885 0.0501
0.1714 5.5161 0.0684
0.2000 5.5304 0.2205
0.2286 5.4870 0.6642
0.2571 5.3827 0.8674
0.2857 5.2597 0.9154
0.3143 5.1363 0.8958
0.3429 5.0998 0.1038
0.3714 5.2180 0.0073
0.4000 5.3427 0.0017
0.4286 5.4563 0.0006
0.4571 5.5250 0.0019
0.4857 5.5239 0.0029
0.5143 5.4982 0.0028
0.5429 5.4653 0.0024
0.5714 5.4271 0.0023
0.6000 5.3933 0.0026
0.6286 5.3792 0.0022
0.6571 5.3689 0.0007
0.6857 5.3706 0.0008
0.7143 5.3821 0.0006
0.7429 5.4033 0.0012
0.7714 5.4400 0.0013
0.8000 5.4774 0.0011
0.8286 5.5069 0.0006
0.8571 5.5292 0.0011
0.8857 5.5106 0.0020
0.9143 5.4209 0.0023
0.9429 5.3017 0.0021
0.9714 5.1766 0.0017
0.0000 5.4193 0.0083
0.0286 5.4114 0.0051
0.0571 5.4292 0.0111
0.0857 5.4755 0.0190
0.1143 5.5206 0.0353
0.1429 5.5550 0.0938
0.1714 5.5563 0.1892
0.2000 5.5604 0.1499
0.2286 5.5233 0.6839
0.2571 5.4109 0.9069
0.2857 5.2833 0.9356
0.3143 5.1589 0.9042
0.3429 5.1232 0.1359
0.3714 5.2409 0.0148
0.4000 5.3689 0.0053
0.4286 5.4900 0.0023
0.4571 5.5582 0.0011
0.4857 5.5556 0.0013
0.5143 5.5608 0.0013
0.5429 5.5339 0.0015
0.5714 5.4912 0.0014
0.6000 5.4439 0.0011
0.6286 5.4107 0.0009
0.6571 5.4184 0.0012
0.6857 5.4152 0.0013
0.7143 5.4171 0.0011
0.7429 5.4597 0.0011
0.7714 5.5064 0.0012
0.8000 5.5457 0.0014
0.8286 5.5604 0.0019
0.8571 5.5583 0.0020
0.8857 5.5469 0.0016
0.9143 5.4517 0.0012
0.9429 5.3264 0.0011
0.9714 5.1991 0.0010
0.0000 5.4217 0.0034
0.0286 5.4402 0.0065
0.0571 5.4794 0.0081
0.0857 5.5249 0.0112
0.1143 5.5699 0.0180
0.1429 5.6105 0.0394
0.1714 5.6371 0.1425
0.2000 5.6364 0.2671
0.2286 5.6234 0.1748
0.2571 5.6289 0.0491
0.2857 5.6386 0.0207
0.3143 5.6448 0.0116
0.3429 5.6457 0.0077
0.3714 5.6412 0.0058
0.4000 5.6323 0.0049
0.4286 5.6236 0.0048
0.4571 5.6314 0.0027
0.4857 5.6393 0.0012
0.5143 5.6222 0.0017
0.5429 5.5842 0.0019
0.5714 5.5402 0.0019
0.6000 5.4942 0.0018
0.6286 5.4520 0.0016
0.6571 5.4238 0.0014
0.6857 5.4305 0.0010
0.7143 5.4652 0.0012
0.7429 5.5096 0.0015
0.7714 5.5553 0.0018
0.8000 5.5978 0.0021
0.8286 5.6313 0.0024
0.8571 5.6391 0.0025
0.8857 5.6262 0.0019
0.9143 5.6257 0.0019
0.9429 5.6356 0.0017
0.9714 5.6432 0.0017
0.0000 6.2752 0.9443
0.0286 6.2583 0.9499
0.0571 6.1967 0.9553
0.0857 6.0920 0.9506
0.1143 5.9548 0.9316
0.1429 5.8012 0.8438
0.1714 5.6905 0.3385
0.2000 5.6830 0.2907
0.2286 5.6411 0.2587
0.2571 5.6432 0.0630
0.2857 5.6530 0.0270
0.3143 5.6593 0.0153
0.3429 5.6602 0.0101
0.3714 5.6556 0.0073
0.4000 5.6466 0.0054
0.4286 5.6389 0.0036
0.4571 5.6692 0.0030
0.4857 5.6835 0.0024
0.5143 5.7531 0.0015
0.5429 5.9044 0.0011
0.5714 6.0494 0.0011
0.6000 6.1664 0.0014
0.6286 6.2433 0.0018
0.6571 6.2734 0.0032
0.6857 6.2679 0.0045
0.7143 6.2227 0.0035
0.7429 6.1312 0.0022
0.7714 6.0034 0.0016
0.8000 5.8527 0.0014
0.8286 5.7138 0.0013
0.8571 5.6841 0.0015
0.8857 5.6508 0.0011
0.9143 5.6403 0.0005
0.9429 5.6499 0.0005
0.9714 5.6577 0.0005
0.0000 6.2792 0.9520
0.0286 6.2612 0.9493
0.0571 6.2149 0.9474
0.0857 6.1439 0.9487
0.1143 6.0527 0.9483
0.1429 5.9462 0.9440
0.1714 5.8316 0.9186
0.2000 5.7255 0.6033
0.2286 5.7173 0.0648
0.2571 5.7316 0.0276
0.2857 5.7436 0.0147
0.3143 5.7504 0.0091
0.3429 5.7514 0.0062
0.3714 5.7464 0.0046
0.4000 5.7361 0.0035
0.4286 5.7220 0.0026
0.4571 5.7127 0.0015
0.4857 5.7929 0.0017
0.5143 5.9083 0.0016
0.5429 6.0187 0.0016
0.5714 6.1158 0.0019
0.6000 6.1940 0.0024
0.6286 6.2485 0.0033
0.6571 6.2771 0.0031
0.6857 6.2710 0.0028
0.7143 6.2332 0.0032
0.7429 6.1702 0.0032
0.7714 6.0851 0.0024
0.8000 5.9830 0.0016
0.8286 5.8696 0.0011
0.8571 5.7560 0.0008
0.8857 5.7133 0.0009
0.9143 5.7269 0.0012
0.9429 5.7401 0.0015
0.9714 5.7487 0.0017
0.0000 6.2993 0.9512
0.0286 6.2793 0.9504
0.0571 6.2279 0.9495
0.0857 6.1544 0.9481
0.1143 6.0623 0.9398
0.1429 5.9579 0.9118
0.1714 5.8524 0.8216
0.2000 5.7700 0.4977
0.2286 5.7513 0.1226
0.2571 5.7626 0.0357
0.2857 5.7747 0.0163
0.3143 5.7818 0.0098
0.3429 5.7828 0.0070
0.3714 5.7776 0.0057
0.4000 5.7670 0.0052
0.4286 5.7541 0.0053
0.4571 5.7567 0.0056
0.4857 5.8199 0.0037
0.5143 5.9219 0.0023
0.5429 6.0286 0.0018
0.5714 6.1258 0.0014
0.6000 6.2059 0.0011
0.6286 6.2650 0.0007
0.6571 6.2970 0.0006
0.6857 6.2902 0.0005
0.7143 6.2477 0.0013
0.7429 6.1813 0.0024
0.7714 6.0949 0.0030
0.8000 5.9936 0.0033
0.8286 5.8862 0.0031
0.8571 5.7917 0.0026
0.8857 5.7513 0.0027
0.9143 5.7582 0.0030
0.9429 5.7711 0.0030
0.9714 5.7800 0.0030
0.0000 6.8042 0.0061
0.0286 6.8059 0.0093
0.0571 6.7883 0.0082
0.0857 6.7639 0.0064
0.1143 6.7440 0.0049
0.1429 6.7308 0.0038
0.1714 6.7252 0.0030
0.2000 6.7303 0.0025
0.2286 6.7420 0.0021
0.2571 6.7622 0.0019
0.2857 6.7915 0.0018
0.3143 6.8305 0.0020
0.3429 6.8448 0.0016
0.3714 6.8032 0.0014
0.4000 6.7709 0.0014
0.4286 6.7477 0.0014
0.4571 6.7331 0.0014
0.4857 6.7275 0.0016
0.5143 6.7280 0.0018
0.5429 6.7388 0.0023
0.5714 6.7567 0.0034
0.6000 6.7804 0.0063
0.6286 6.8020 0.0113
0.6571 6.8045 0.0148
0.6857 6.8060 0.3219
0.7143 6.7958 0.8175
0.7429 6.7716 0.9234
0.7714 6.7500 0.9522
0.8000 6.7344 0.9635
0.8286 6.7261 0.9691
0.8571 6.7285 0.9722
0.8857 6.7368 0.9742
0.9143 6.7545 0.9755
0.9429 6.7807 0.9762
0.9714 6.8160 0.9764
0.0000 6.8280 0.0109
0.0286 6.8401 0.0060
0.0571 6.9031 0.0034
0.0857 7.0060 0.0027
0.1143 7.1179 0.0027
0.1429 7.2066 0.0022
0.1714 7.2595 0.0023
0.2000 7.1906 0.0021
0.2286 7.1066 0.0020
0.2571 7.0279 0.0018
0.2857 6.9581 0.0017
0.3143 6.8978 0.0015
0.3429 6.8803 0.0020
0.3714 6.9369 0.0027
0.4000 7.0036 0.0041
0.4286 7.0795 0.0076
0.4571 7.1619 0.0201
0.4857 7.2441 0.1445
0.5143 7.2329 0.8410
0.5429 7.1490 0.8066
0.5714 7.0455 0.2941
0.6000 6.9336 0.0891
0.6286 6.8559 0.0976
0.6571 6.8278 0.2298
0.6857 6.8310 0.2550
0.7143 6.8770 0.0316
0.7429 6.9682 0.0056
0.7714 7.0837 0.0020
0.8000 7.1784 0.0189
0.8286 7.2539 0.2114
0.8571 7.2188 0.8940
0.8857 7.1334 0.9558
0.9143 7.0532 0.9686
0.9429 6.9803 0.9735
0.9714 6.9168 0.9758
0.0000 6.8919 0.0066
0.0286 6.9068 0.0032
0.0571 6.9603 0.0023
0.0857 7.0454 0.0023
0.1143 7.1624 0.0014
0.1429 7.3196 0.0013
0.1714 7.3364 0.0015
0.2000 7.4066 0.0014
0.2286 7.5019 0.0016
0.2571 7.6012 0.0021
0.2857 7.7027 0.0045
0.3143 7.8027 0.0267
0.3429 7.8323 0.7991
0.3714 7.7365 0.9238
0.4000 7.6349 0.9387
0.4286 7.5347 0.9396
0.4571 7.4384 0.9249
0.4857 7.3522 0.7887
0.5143 7.3470 0.0380
0.5429 7.2132 0.0375
0.5714 7.0788 0.3778
0.6000 6.9860 0.3104
0.6286 6.9204 0.1596
0.6571 6.8928 0.0535
0.6857 6.8975 0.1184
0.7143 6.9382 0.0706
0.7429 7.0145 0.0301
0.7714 7.1172 0.0205
0.8000 7.2672 0.0417
0.8286 7.3396 0.6594
0.8571 7.3777 0.0647
0.8857 7.4698 0.0158
0.9143 7.5678 0.0076
0.9429 7.6687 0.0048
0.9714 7.7701 0.0038
0.0000 6.9094 0.0036
0.0286 6.9262 0.0052
0.0571 6.9889 0.0049
0.0857 7.0898 0.0027
0.1143 7.2245 0.0013
0.1429 7.3732 0.0012
0.1714 7.5321 0.0013
0.2000 7.7428 0.0017
0.2286 7.8927 0.0279
0.2571 7.9572 0.0754
0.2857 7.9920 0.3780
0.3143 7.9427 0.8072
0.3429 7.9168 0.1238
0.3714 7.9853 0.0260
0.4000 7.9743 0.0166
0.4286 7.9161 0.0121
0.4571 7.8135 0.0011
0.4857 7.6005 0.0060
0.5143 7.4104 0.0247
0.5429 7.2755 0.0230
0.5714 7.1312 0.0714
0.6000 7.0186 0.1191
0.6286 6.9425 0.1490
0.6571 6.9101 0.2187
0.6857 6.9153 0.1528
0.7143 6.9634 0.0281
0.7429 7.0523 0.0095
0.7714 7.1761 0.0121
0.8000 7.3276 0.0714
0.8286 7.4671 0.0368
0.8571 7.6711 0.0050
0.8857 7.8647 0.0053
0.9143 7.9377 0.0037
0.9429 7.9874 0.0032
0.9714 7.9672 0.0025
0.0000 6.9263 0.0031
0.0286 6.9476 0.0047
0.0571 7.0131 0.0043
0.0857 7.1179 0.0034
0.1143 7.2572 0.0029
0.1429 7.4140 0.0022
0.1714 7.5895 0.0011
0.2000 7.7880 0.0062
0.2286 7.9368 0.0023
0.2571 8.0162 0.0019
0.2857 8.0829 0.0340
0.3143 8.1155 0.0889
0.3429 8.1237 0.0208
0.3714 8.0973 0.0032
0.4000 8.0390 0.0076
0.4286 7.9674 0.0069
0.4571 7.8375 0.0179
0.4857 7.6561 0.0160
0.5143 7.4650 0.0382
0.5429 7.3099 0.0365
0.5714 7.1609 0.0403
0.6000 7.0438 0.0565
0.6286 6.9650 0.0899
0.6571 6.9281 0.1659
0.6857 6.9350 0.0752
0.7143 6.9867 0.0142
0.7429 7.0789 0.0046
0.7714 7.2074 0.0037
0.8000 7.3640 0.0290
0.8286 7.5251 0.0141
0.8571 7.7236 0.0012
0.8857 7.8878 0.0023
0.9143 7.9928 0.0029
0.9429 8.0615 0.0023
0.9714 8.1057 0.0009
0.0000 6.9677 0.0024
0.0286 6.9935 0.0018
0.0571 7.0551 0.0014
0.0857 7.1460 0.0015
0.1143 7.2741 0.0017
0.1429 7.4304 0.0018
0.1714 7.6163 0.0033
0.2000 7.8014 0.0061
0.2286 7.9675 0.0061
0.2571 8.0558 0.0374
0.2857 8.0998 0.2985
0.3143 8.1489 0.0073
0.3429 8.1647 0.0118
0.3714 8.1097 0.0088
0.4000 8.0775 0.0068
0.4286 8.0020 0.0096
0.4571 7.8626 0.0091
0.4857 7.6805 0.0090
0.5143 7.4897 0.0045
0.5429 7.3242 0.0445
0.5714 7.1845 0.1752
0.6000 7.0818 0.3850
0.6286 7.0112 0.4607
0.6571 6.9704 0.2870
0.6857 6.9795 0.0484
0.7143 7.0317 0.0135
0.7429 7.1119 0.0095
0.7714 7.2273 0.0119
0.8000 7.3762 0.0510
0.8286 7.5522 0.0135
0.8571 7.7428 0.0095
0.8857 7.9209 0.0006
0.9143 8.0308 0.0009
0.9429 8.0935 0.0009
0.9714 8.1294 0.0020
0.0000 7.6075 0.0036
0.0286 7.5984 0.0034
0.0571 7.5974 0.0029
0.0857 7.6057 0.0021
0.1143 7.5381 0.0025
0.1429 7.4818 0.0025
0.1714 7.6425 0.0021
0.2000 7.8482 0.0018
0.2286 7.9820 0.0041
0.2571 8.0782 0.0053
0.2857 8.1444 0.0224
0.3143 8.1971 0.0210
0.3429 8.2054 0.0094
0.3714 8.1644 0.0076
0.4000 8.1010 0.0026
0.4286 8.0252 0.0025
0.4571 7.9044 0.0031
0.4857 7.7096 0.0075
0.5143 7.5207 0.0240
0.5429 7.5076 0.0222
0.5714 7.5936 0.0096
0.6000 7.6012 0.0029
0.6286 7.5960 0.0025
0.6571 7.6058 0.0028
0.6857 7.6020 0.0105
0.7143 7.5956 0.0254
0.7429 7.6056 0.1305
0.7714 7.5686 0.7587
0.8000 7.4831 0.7329
0.8286 7.5785 0.0345
0.8571 7.7788 0.0045
0.8857 7.9388 0.0030
0.9143 8.0541 0.0007
0.9429 8.1231 0.0007
0.9714 8.1825 0.0008
0.0000 7.6294 0.0020
0.0286 7.6150 0.0025
0.0571 7.6125 0.0024
0.0857 7.6390 0.0026
0.1143 7.6870 0.0036
0.1429 7.7505 0.0051
0.1714 7.8134 0.0069
0.2000 7.8866 0.0047
0.2286 8.0286 0.0012
0.2571 8.1851 0.6273
0.2857 8.1558 0.1947
0.3143 8.2049 0.0020
0.3429 8.2179 0.0016
0.3714 8.1700 0.0033
0.4000 8.1692 0.0019
0.4286 8.0793 0.0010
0.4571 7.9308 0.0011
0.4857 7.8350 0.0027
0.5143 7.7719 0.0018
0.5429 7.7070 0.0020
0.5714 7.6533 0.0039
0.6000 7.6180 0.0022
0.6286 7.6113 0.0021
0.6571 7.6262 0.0057
0.6857 7.6204 0.0036
0.7143 7.6104 0.0013
0.7429 7.6272 0.0028
0.7714 7.6691 0.0253
0.8000 7.7284 0.0097
0.8286 7.7927 0.0037
0.8571 7.8588 0.0015
0.8857 7.9918 0.0013
0.9143 8.1474 0.0015
0.9429 8.1552 0.0007
0.9714 8.1879 0.0008
0.0000 7.6352 0.0042
0.0286 7.6427 0.0024
0.0571 7.6443 0.0026
0.0857 7.6652 0.0028
0.1143 7.7018 0.0023
0.1429 7.7753 0.0029
0.1714 7.8452 0.0024
0.2000 7.9316 0.0017
0.2286 8.0718 0.0125
0.2571 8.2326 0.0971
0.2857 8.2957 0.0060
0.3143 8.2541 0.0051
0.3429 8.2436 0.0043
0.3714 8.2824 0.0043
0.4000 8.2959 0.0011
0.4286 8.1394 0.0034
0.4571 7.9728 0.0016
0.4857 7.8706 0.0012
0.5143 7.7970 0.0034
0.5429 7.7258 0.0013
0.5714 7.6688 0.0020
0.6000 7.6496 0.0011
0.6286 7.6422 0.0031
0.6571 7.6374 0.0066
0.6857 7.6407 0.0039
0.7143 7.6420 0.0029
0.7429 7.6579 0.0263
0.7714 7.6817 0.0558
0.8000 7.7521 0.0079
0.8286 7.8206 0.0021
0.8571 7.8981 0.0020
0.8857 8.0090 0.0011
0.9143 8.1986 0.0006
0.9429 8.3063 0.0017
0.9714 8.2677 0.0017
0.0000 7.6701 0.0016
0.0286 7.6532 0.0040
0.0571 7.6618 0.0034
0.0857 7.6738 0.0034
0.1143 7.7190 0.0030
0.1429 7.7814 0.0024
0.1714 7.8642 0.0026
0.2000 7.9452 0.0036
0.2286 8.0898 0.0013
0.2571 8.2870 0.0133
0.2857 8.3243 0.0156
0.3143 8.2770 0.0069
0.3429 8.2663 0.0025
0.3714 8.3090 0.0014
0.4000 8.3135 0.0022
0.4286 8.1602 0.0007
0.4571 7.9786 0.0026
0.4857 7.8906 0.0066
0.5143 7.8095 0.0049
0.5429 7.7373 0.0046
0.5714 7.6856 0.0028
0.6000 7.6672 0.0086
0.6286 7.6536 0.0056
0.6571 7.6653 0.0007
0.6857 7.6579 0.0050
0.7143 7.6570 0.0161
0.7429 7.6714 0.1385
0.7714 7.7014 0.0015
0.8000 7.7562 0.0020
0.8286 7.8375 0.0065
0.8571 7.9174 0.0038
0.8857 8.0299 0.0020
0.9143 8.2265 0.0016
0.9429 8.3348 0.0008
0.9714 8.2922 0.0011
0.0000 7.6813 0.0024
0.0286 7.6948 0.0021
0.0571 7.7021 0.0040
0.0857 7.7046 0.0042
0.1143 7.7456 0.0032
0.1429 7.8159 0.0019
0.1714 7.8926 0.0011
0.2000 7.9642 0.0027
0.2286 8.1052 0.0039
0.2571 8.2955 0.0302
0.2857 8.3700 0.0046
0.3143 8.3377 0.0033
0.3429 8.3267 0.0020
0.3714 8.3635 0.0008
0.4000 8.3472 0.0013
0.4286 8.1768 0.0016
0.4571 7.9933 0.0035
0.4857 7.9163 0.0021
0.5143 7.8423 0.0008
0.5429 7.7664 0.0023
0.5714 7.7140 0.0028
0.6000 7.7029 0.0032
0.6286 7.6980 0.0045
0.6571 7.6846 0.0051
0.6857 7.6901 0.0136
0.7143 7.7003 0.0542
0.7429 7.7022 0.1853
0.7714 7.7281 0.0197
0.8000 7.7899 0.0025
0.8286 7.8681 0.0012
0.8571 7.9399 0.0018
0.8857 8.0393 0.0016
0.9143 8.2452 0.0008
0.9429 8.3617 0.0011
0.9714 8.3511 0.0005
0.0000 7.7004 0.0043
0.0286 7.7224 0.0055
0.0571 7.7310 0.0035
0.0857 7.7494 0.0033
0.1143 7.7864 0.0027
0.1429 7.8375 0.0015
0.1714 7.9230 0.0016
0.2000 8.0516 0.0033
0.2286 8.2008 0.0540
0.2571 8.3305 0.0034
0.2857 8.3872 0.0178
0.3143 8.3466 0.0156
0.3429 8.3358 0.0098
0.3714 8.3751 0.0050
0.4000 8.3784 0.0027
0.4286 8.2369 0.0009
0.4571 8.1002 0.0007
0.4857 7.9624 0.0011
0.5143 7.8598 0.0036
0.5429 7.8022 0.0029
0.5714 7.7593 0.0010
0.6000 7.7361 0.0018
0.6286 7.7244 0.0019
0.6571 7.7053 0.0018
0.6857 7.7154 0.0033
0.7143 7.7271 0.0104
0.7429 7.7420 0.0445
0.7714 7.7719 0.0263
0.8000 7.8186 0.0141
0.8286 7.8884 0.0032
0.8571 8.0055 0.0004
0.8857 8.1505 0.0003
0.9143 8.2540 0.0009
0.9429 8.3932 0.0018
0.9714 8.3605 0.0018
0.0000 7.7411 0.0044
0.0286 7.7376 0.0023
0.0571 7.7706 0.0024
0.0857 7.7765 0.0022
0.1143 7.8067 0.0028
0.1429 7.8720 0.0046
0.1714 7.9669 0.0073
0.2000 8.0917 0.0137
0.2286 8.2320 0.1075
0.2571 8.3597 0.0035
0.2857 8.4994 0.0019
0.3143 8.7119 0.0007
0.3429 8.7713 0.0010
0.3714 8.5709 0.0015
0.4000 8.3951 0.0030
0.4286 8.2719 0.0004
0.4571 8.1384 0.0005
0.4857 8.0053 0.0005
0.5143 7.9001 0.0006
0.5429 7.8247 0.0015
0.5714 7.7825 0.0027
0.6000 7.7758 0.0016
0.6286 7.7491 0.0007
0.6571 7.7377 0.0009
0.6857 7.7340 0.0076
0.7143 7.7611 0.0352
0.7429 7.7755 0.1952
0.7714 7.7927 0.0316
0.8000 7.8464 0.0032
0.8286 7.9318 0.0014
0.8571 8.0472 0.0011
0.8857 8.1861 0.0005
0.9143 8.3189 0.0004
0.9429 8.4400 0.0005
0.9714 8.6431 0.0003
0.0000 7.7527 0.0036
0.0286 7.7774 0.0029
0.0571 7.8091 0.0022
0.0857 7.8295 0.0025
0.1143 7.8659 0.0026
0.1429 7.9215 0.0023
0.1714 8.0085 0.0016
0.2000 8.1245 0.0021
0.2286 8.2664 0.0046
0.2571 8.3729 0.0350
0.2857 8.5316 0.0032
0.3143 8.7443 0.0022
0.3429 8.8115 0.0016
0.3714 8.6031 0.0019
0.4000 8.4077 0.0015
0.4286 8.3158 0.0010
0.4571 8.1686 0.0009
0.4857 8.0448 0.0017
0.5143 7.9462 0.0029
0.5429 7.8820 0.0029
0.5714 7.8395 0.0025
0.6000 7.8175 0.0016
0.6286 7.7886 0.0024
0.6571 7.7574 0.0049
0.6857 7.7666 0.0018
0.7143 7.7992 0.0064
0.7429 7.8226 0.1072
0.7714 7.8518 0.0214
0.8000 7.9000 0.0083
0.8286 7.9754 0.0039
0.8571 8.0835 0.0010
0.8857 8.2159 0.0008
0.9143 8.3473 0.0010
0.9429 8.4619 0.0006
0.9714 8.6741 0.0004
0.0000 7.7653 0.0025
0.0286 7.8052 0.0020
0.0571 7.8612 0.0028
0.0857 7.8498 0.0021
0.1143 7.8896 0.0020
0.1429 7.9440 0.0020
0.1714 8.0218 0.0020
0.2000 8.1381 0.0016
0.2286 8.2865 0.0021
0.2571 8.3893 0.0102
0.2857 8.5600 0.0017
0.3143 8.7729 0.0007
0.3429 8.8405 0.0029
0.3714 8.6304 0.0020
0.4000 8.4270 0.0008
0.4286 8.3199 0.0008
0.4571 8.1850 0.0032
0.4857 8.0557 0.0026
0.5143 7.9666 0.0014
0.5429 7.9059 0.0010
0.5714 7.8615 0.0009
0.6000 7.8431 0.0012
0.6286 7.8328 0.0024
0.6571 7.7701 0.0044
0.6857 7.7838 0.0106
0.7143 7.8631 0.1186
0.7429 7.8412 0.1234
0.7714 7.8748 0.0120
0.8000 7.9236 0.0050
0.8286 7.9924 0.0033
0.8571 8.0947 0.0032
0.8857 8.2346 0.0022
0.9143 8.3701 0.0004
0.9429 8.4925 0.0006
0.9714 8.7019 0.0009
0.0000 7.8292 0.0023
0.0286 7.8590 0.0035
0.0571 7.9086 0.0023
0.0857 8.0394 0.0031
0.1143 8.1666 0.0101
0.1429 8.2649 0.0141
0.1714 8.3383 0.0392
0.2000 8.3617 0.4167
0.2286 8.3120 0.6252
0.2571 8.4205 0.0194
0.2857 8.5829 0.0044
0.3143 8.7937 0.0034
0.3429 8.8514 0.0012
0.3714 8.6589 0.0006
0.4000 8.4528 0.0008
0.4286 8.3403 0.0026
0.4571 8.3483 0.0011
0.4857 8.3542 0.0018
0.5143 8.2928 0.0020
0.5429 8.2011 0.0015
0.5714 8.0866 0.0027
0.6000 7.9488 0.0027
0.6286 7.8783 0.0022
0.6571 7.8330 0.0024
0.6857 7.8434 0.0048
0.7143 7.8902 0.3430
0.7429 7.9930 0.0024
0.7714 8.1301 0.0011
0.8000 8.2337 0.0008
0.8286 8.3175 0.0008
0.8571 8.3637 0.0008
0.8857 8.3291 0.0009
0.9143 8.3865 0.0017
0.9429 8.5062 0.0005
0.9714 8.7287 0.0003
0.0000 7.8424 0.0056
0.0286 7.8710 0.0063
0.0571 7.9475 0.0070
0.0857 8.0557 0.0081
0.1143 8.1776 0.0018
0.1429 8.2884 0.0054
0.1714 8.3643 0.0392
0.2000 8.3928 0.1015
0.2286 8.3934 0.0245
0.2571 8.4530 0.0069
0.2857 8.6199 0.0028
0.3143 8.8470 0.0012
0.3429 8.9097 0.0018
0.3714 8.6911 0.0011
0.4000 8.4965 0.0005
0.4286 8.3902 0.0037
0.4571 8.3952 0.0032
0.4857 8.3795 0.0018
0.5143 8.3179 0.0011
0.5429 8.2181 0.0014
0.5714 8.0942 0.0004
0.6000 7.9808 0.0017
0.6286 7.8925 0.0036
0.6571 7.8456 0.0074
0.6857 7.8553 0.0119
0.7143 7.9196 0.0297
0.7429 8.0176 0.0049
0.7714 8.1342 0.0020
0.8000 8.2548 0.0020
0.8286 8.3435 0.0015
0.8571 8.3888 0.0011
0.8857 8.3953 0.0012
0.9143 8.3982 0.0015
0.9429 8.5547 0.0003
0.9714 8.7686 0.0007
0.0000 7.8766 0.0051
0.0286 7.9105 0.0052
0.0571 7.9560 0.0062
0.0857 8.0789 0.0049
0.1143 8.1975 0.0045
0.1429 8.3062 0.0061
0.1714 8.3982 0.0126
0.2000 8.4411 0.2566
0.2286 8.4353 0.0799
0.2571 8.4708 0.0182
0.2857 8.6347 0.0019
0.3143 8.8544 0.0008
0.3429 8.9193 0.0012
0.3714 8.7036 0.0015
0.4000 8.5207 0.0019
0.4286 8.4341 0.0011
0.4571 8.4400 0.0006
0.4857 8.4211 0.0006
0.5143 8.3398 0.0009
0.5429 8.2339 0.0013
0.5714 8.1209 0.0017
0.6000 7.9944 0.0030
0.6286 7.9342 0.0011
0.6571 7.8801 0.0008
0.6857 7.8913 0.0016
0.7143 7.9297 0.2569
0.7429 8.0361 0.0016
0.7714 8.1601 0.0013
0.8000 8.2701 0.0006
0.8286 8.3708 0.0005
0.8571 8.4378 0.0006
0.8857 8.4379 0.0009
0.9143 8.4429 0.0005
0.9429 8.5733 0.0004
0.9714 8.7777 0.0004
0.0000 7.9676 0.0022
0.0286 7.9722 0.0043
0.0571 8.0094 0.0053
0.0857 8.1116 0.0036
0.1143 8.2182 0.0030
0.1429 8.3240 0.0035
0.1714 8.4129 0.0204
0.2000 8.4594 0.0565
0.2286 8.4744 0.0182
0.2571 8.4804 0.0040
0.2857 8.6767 0.0018
0.3143 8.9008 0.0023
0.3429 8.9562 0.0010
0.3714 8.7511 0.0027
0.4000 8.5314 0.0028
0.4286 8.4726 0.0011
0.4571 8.4683 0.0009
0.4857 8.4344 0.0011
0.5143 8.3565 0.0010
0.5429 8.2539 0.0009
0.5714 8.1460 0.0028
0.6000 8.0462 0.0045
0.6286 7.9519 0.0070
0.6571 7.9690 0.0105
0.6857 7.9727 0.0643
0.7143 7.9729 0.0149
0.7429 8.0792 0.0004
0.7714 8.1820 0.0007
0.8000 8.2891 0.0007
0.8286 8.3864 0.0006
0.8571 8.4489 0.0007
0.8857 8.4732 0.0008
0.9143 8.4700 0.0007
0.9429 8.6024 0.0010
0.9714 8.8271 0.0005
0.0000 7.9817 0.0043
0.0286 7.9911 0.0034
0.0571 8.0371 0.0029
0.0857 8.1282 0.0034
0.1143 8.2508 0.0122
0.1429 8.4058 0.0855
0.1714 8.4784 0.6386
0.2000 8.4784 0.0770
0.2286 8.4962 0.0095
0.2571 8.5150 0.0028
0.2857 8.6841 0.0021
0.3143 8.9308 0.0013
0.3429 8.9806 0.0009
0.3714 8.7646 0.0015
0.4000 8.5531 0.0020
0.4286 8.4979 0.0018
0.4571 8.4872 0.0016
0.4857 8.4721 0.0014
0.5143 8.4496 0.0009
0.5429 8.3017 0.0020
0.5714 8.1637 0.0025
0.6000 8.0642 0.0022
0.6286 8.0001 0.0039
0.6571 7.9832 0.0065
0.6857 7.9873 0.0447
0.7143 8.0159 0.0075
0.7429 8.0955 0.0030
0.7714 8.2042 0.0010
0.8000 8.3546 0.0007
0.8286 8.4747 0.0006
0.8571 8.4703 0.0011
0.8857 8.4930 0.0007
0.9143 8.5016 0.0005
0.9429 8.6127 0.0006
0.9714 8.8482 0.0007
0.0000 7.9997 0.0025
0.0286 8.0024 0.0024
0.0571 8.0504 0.0026
0.0857 8.1491 0.0042
0.1143 8.2892 0.0041
0.1429 8.4462 0.0246
0.1714 8.6059 0.0324
0.2000 8.7814 0.0112
0.2286 8.9606 0.0065
0.2571 9.0931 0.0028
0.2857 9.1643 0.0022
0.3143 9.0488 0.0011
0.3429 9.0033 0.0010
0.3714 9.1535 0.0007
0.4000 9.1260 0.0009
0.4286 9.0100 0.0008
0.4571 8.8423 0.0019
0.4857 8.6630 0.0015
0.5143 8.4977 0.0022
0.5429 8.3420 0.0021
0.5714 8.1909 0.0014
0.6000 8.0777 0.0037
0.6286 8.0127 0.0047
0.6571 8.0007 0.0027
0.6857 8.0019 0.0906
0.7143 8.0291 0.0023
0.7429 8.1120 0.0024
0.7714 8.2381 0.0012
0.8000 8.3947 0.0006
0.8286 8.5507 0.0011
0.8571 8.7217 0.0008
0.8857 8.9038 0.0003
0.9143 9.0542 0.0006
0.9429 9.1513 0.0007
0.9714 9.1084 0.0005
0.0000 8.0110 0.0037
0.0286 8.0222 0.0040
0.0571 8.0666 0.0029
0.0857 8.1679 0.0077
0.1143 8.3201 0.0138
0.1429 8.4710 0.0436
0.1714 8.6231 0.0426
0.2000 8.7945 0.0140
0.2286 8.9672 0.0030
0.2571 9.1166 0.0019
0.2857 9.1948 0.0011
0.3143 9.0647 0.0019
0.3429 9.0299 0.0022
0.3714 9.1781 0.0008
0.4000 9.1498 0.0019
0.4286 9.0251 0.0019
0.4571 8.8525 0.0011
0.4857 8.6786 0.0028
0.5143 8.5205 0.0021
0.5429 8.3712 0.0043
0.5714 8.2192 0.0025
0.6000 8.0908 0.0006
0.6286 8.0331 0.0007
0.6571 8.0120 0.0017
0.6857 8.0154 0.0438
0.7143 8.0477 0.0184
0.7429 8.1233 0.0024
0.7714 8.2696 0.0003
0.8000 8.4216 0.0003
0.8286 8.5706 0.0006
0.8571 8.7362 0.0005
0.8857 8.9099 0.0007
0.9143 9.0759 0.0003
0.9429 9.1770 0.0002
0.9714 9.1238 0.0004
0.0000 8.0449 0.0014
0.0286 8.0366 0.0024
0.0571 8.0822 0.0030
0.0857 8.1799 0.0037
0.1143 8.3307 0.0184
0.1429 8.4988 0.0300
0.1714 8.6392 0.0452
0.2000 8.8075 0.0074
0.2286 8.9939 0.0057
0.2571 9.1397 0.0030
0.2857 9.2288 0.0023
0.3143 9.0831 0.0015
0.3429 9.0415 0.0022
0.3714 9.2035 0.0019
0.4000 9.1793 0.0019
0.4286 9.0463 0.0013
0.4571 8.8686 0.0013
0.4857 8.6926 0.0010
0.5143 8.5465 0.0028
0.5429 8.3872 0.0032
0.5714 8.2234 0.0039
0.6000 8.1096 0.0023
0.6286 8.0440 0.0013
0.6571 8.0466 0.0041
0.6857 8.0425 0.3062
0.7143 8.0601 0.0056
0.7429 8.1421 0.0005
0.7714 8.2749 0.0004
0.8000 8.4439 0.0003
0.8286 8.5905 0.0004
0.8571 8.7490 0.0005
0.8857 8.9319 0.0004
0.9143 9.0935 0.0005
0.9429 9.2106 0.0006
0.9714 9.1452 0.0005
0.0000 8.0545 0.0061
0.0286 8.0716 0.0013
0.0571 8.1405 0.0044
0.0857 8.2358 0.0062
0.1143 8.3555 0.0075
0.1429 8.5078 0.0837
0.1714 8.6726 0.0203
0.2000 8.8410 0.0057
0.2286 9.0082 0.0026
0.2571 9.1483 0.0021
0.2857 9.2438 0.0017
0.3143 9.1199 0.0007
0.3429 9.0851 0.0012
0.3714 9.2306 0.0012
0.4000 9.1873 0.0015
0.4286 9.0595 0.0020
0.4571 8.8979 0.0016
0.4857 8.7280 0.0028
0.5143 8.5631 0.0059
0.5429 8.4042 0.0009
0.5714 8.2719 0.0026
0.6000 8.1704 0.0025
0.6286 8.0904 0.0011
0.6571 8.0538 0.0040
0.6857 8.0583 0.0169
0.7143 8.1137 0.0014
0.7429 8.2021 0.0003
0.7714 8.3116 0.0003
0.8000 8.4558 0.0004
0.8286 8.6180 0.0003
0.8571 8.7843 0.0002
0.8857 8.9549 0.0003
0.9143 9.1058 0.0004
0.9429 9.2217 0.0003
0.9714 9.1803 0.0003
0.0000 8.0554 0.0018
0.0286 8.0763 0.0057
0.0571 8.1458 0.0042
0.0857 8.2514 0.0063
0.1143 8.3745 0.0060
0.1429 8.5253 0.0228
0.1714 8.6984 0.0091
0.2000 8.8602 0.0066
0.2286 9.0125 0.0060
0.2571 9.2067 0.0075
0.2857 9.2724 0.0021
0.3143 9.1861 0.0012
0.3429 9.1152 0.0011
0.3714 9.2529 0.0020
0.4000 9.2699 0.0017
0.4286 9.0715 0.0013
0.4571 8.9104 0.0019
0.4857 8.7557 0.0022
0.5143 8.5804 0.0005
0.5429 8.4205 0.0011
0.5714 8.2913 0.0018
0.6000 8.1780 0.0008
0.6286 8.0946 0.0028
0.6571 8.0573 0.0078
0.6857 8.0638 0.0233
0.7143 8.1179 0.0042
0.7429 8.2133 0.0029
0.7714 8.3320 0.0029
0.8000 8.4713 0.0013
0.8286 8.6386 0.0005
0.8571 8.8089 0.0006
0.8857 8.9615 0.0005
0.9143 9.1382 0.0005
0.9429 9.3005 0.0003
0.9714 9.2303 0.0003
0.0000 8.0587 0.0039
0.0286 8.0877 0.0055
0.0571 8.1562 0.0054
0.0857 8.2590 0.0053
0.1143 8.3882 0.0124
0.1429 8.5504 0.0063
0.1714 8.7130 0.0365
0.2000 8.8797 0.0089
0.2286 9.0480 0.0072
0.2571 9.2251 0.0045
0.2857 9.3000 0.0024
0.3143 9.2164 0.0016
0.3429 9.1510 0.0008
0.3714 9.2626 0.0020
0.4000 9.2855 0.0018
0.4286 9.1057 0.0036
0.4571 8.9351 0.0047
0.4857 8.7666 0.0033
0.5143 8.6105 0.0018
0.5429 8.4383 0.0034
0.5714 8.2985 0.0011
0.6000 8.1875 0.0005
0.6286 8.1061 0.0018
0.6571 8.0639 0.0145
0.6857 8.0740 0.0424
0.7143 8.1291 0.0070
0.7429 8.2219 0.0023
0.7714 8.3415 0.0003
0.8000 8.4922 0.0003
0.8286 8.6631 0.0005
0.8571 8.8233 0.0004
0.8857 8.9917 0.0006
0.9143 9.1645 0.0004
0.9429 9.3360 0.0004
0.9714 9.2504 0.0004
0.0000 8.0980 0.0058
0.0286 8.1030 0.0021
0.0571 8.1811 0.0036
0.0857 8.2787 0.0050
0.1143 8.4106 0.0035
0.1429 8.5737 0.0100
